// Include HLS Math Lib to use calculate exponential function
#include "hls_math.h"

// This is the top function defined during project initialization
int hand_num_nn(float X[784],int y){
	/*Define PRAGMA
	 * Input is taken form port X via BRAM
	 * AXI_LITE Interface is used to control IP core
	 */

#pragma HLS INTERFACE s_axilite port=return bundle=CRTL_BUS
#pragma HLS INTERFACE s_axilite port=y bundle=CRTL_BUS
#pragma HLS INTERFACE bram port=X

	// Weights of the trained Network

//	float weight1[128][768] = {{0.79525,-0.013186,0.062409,-0.044509,-0.090421,-0.02066,0.028493,-0.035273,-0.010794,-0.079325,0.009332,-0.018573,-0.019726,-0.067484,-0.041991,0.0032306,0.048036,-0.071518,-0.012392,-0.053174,-0.015236,0.017315,-0.029389,0.053527,-0.08646,0.019188,-0.010101,-0.061025,-0.071432,-0.018168,-0.057551,-0.0051736,-0.064138,0.098295,0.027534,-0.03936,0.01671,0.045463,0.090493,-0.014183,0.032043,-0.047699,-0.071392,-0.014546,0.062656,0.047896,0.029028,0.051059,0.0032922,0.028078,-0.023712,0.038519,0.019693,0.048234,0.088918,-0.051981,-0.0050824,-0.067336,-0.057162,0.010397,-0.083534,-0.076339,-0.011453,0.034815,0.0535,0.037446,0.040143,0.1616,0.010158,0.085522,0.021715,-0.097327,-0.065661,0.038653,0.089062,0.081466,-0.086644,0.015739,-0.038422,0.070546,0.056457,0.07963,-0.080077,-0.060292,-0.041891,0.086748,0.058901,0.11221,0.069031,-0.034305,0.01036,-0.19853,-0.34325,-0.27183,-0.073561,0.13695,-0.25008,-0.21056,0.062413,0.15565,0.0058195,-0.068472,-0.045984,-0.069169,0.05337,0.028522,0.0929,0.20382,0.089495,0.06841,0.10896,-0.48333,-0.68843,-0.72852,-0.56128,-0.15184,-0.10204,-0.10075,0.14027,0.22497,0.076486,0.06948,-0.084076,-0.080026,-0.055344,-0.0084606,0.076688,0.22528,0.1314,0.39608,0.24129,-0.019929,-0.57697,-1.1267,-1.0255,-0.4406,-0.11897,-0.026791,0.10547,0.14978,0.058181,0.022098,0.016187,-0.17503,-0.13756,-0.1265,-0.0038878,0.077479,0.3963,0.42659,0.40016,0.12658,-0.38858,-1.3841,-1.2127,-0.73513,-0.24626,0.023168,0.13101,0.10594,-0.019002,-0.056809,-0.020144,-0.044452,-0.23096,-0.19179,0.073197,0.25522,0.067965,0.36733,0.31069,0.10404,-0.46787,-1.0409,-0.84109,-0.58018,-0.11749,0.14783,0.02605,0.13701,-0.042427,0.042893,0.0040329,-0.093264,-0.16548,-0.2408,0.05815,0.025463,0.0098919,0.2567,0.26068,0.4421,0.095577,-0.29793,-0.20364,-0.026988,0.04291,0.093591,0.22436,0.2062,0.082374,0.084333,-0.09075,-0.32449,-0.3992,-0.43678,-0.057613,-0.10633,0.14613,0.66289,0.89759,0.67396,0.37342,0.12038,0.16271,0.018659,0.17415,0.47558,0.33857,0.18968,-0.059562,0.025622,-0.1576,-0.30057,-0.45965,-0.36914,0.12865,0.37418,0.655,1.0004,0.98248,0.49509,0.29265,0.21747,-0.152,-0.29531,0.30227,0.61195,0.47889,0.23492,0.035965,0.097218,-0.021744,-0.32128,-0.3926,-0.48767,0.077369,0.26822,0.59197,0.79246,0.49261,0.16448,-0.065632,-0.072465,-0.40907,-0.37812,0.23796,0.43701,0.18464,0.11042,-0.015028,0.036171,-0.14638,-0.1521,-0.19869,-0.27114,0.13473,0.12607,0.1404,0.27792,-0.0072303,-0.1046,-0.17536,-0.45113,-0.7033,-0.48561,-0.055066,0.084471,0.077183,-0.03779,0.0023753,-0.028656,-0.048721,-0.070614,-0.094014,-0.047539,0.24441,0.25614,-0.020389,-0.23407,-0.24417,-0.08237,-0.20189,-0.44652,-0.30187,-0.25873,-0.26341,-0.054585,-0.07364,0.0014277,-0.076387,-0.054983,0.048588,-0.0051606,-0.0095027,0.071814,0.10349,0.12073,-0.18014,-0.45701,-0.35594,-0.24913,-0.20485,-0.36545,-0.32854,-0.20015,-0.1075,-0.12959,-0.026112,0.048408,0.093657,0.053527,0.044732,-0.019666,0.095447,0.17704,0.29468,0.063606,-0.12021,-0.33152,-0.27494,-0.26771,-0.30619,-0.36852,-0.31239,-0.23889,-0.084958,-0.026968,-0.045933,-0.039866,0.027309,0.033001,-0.089841,0.088802,0.030861,0.013998,0.094103,0.15197,0.015453,-0.086788,-0.22153,-0.044445,-0.054273,-0.16244,-0.16279,-0.046936,-0.066725,-0.037688,0.080976,0.0073714,-0.054964,-0.0046647,0.00081418,0.039037,-0.06522,-0.0089403,0.059828,0.14354,-0.055958,0.0053117,-0.034299,-0.058665,-0.14341,-0.11837,-0.10228,-0.089947,0.072219,0.066958,0.0088271,0.0050489,-0.069573,-0.057523,0.078738,-0.083921,-0.077982,-0.048029,0.086084,0.088282,0.044018,-0.034596,-0.029742,0.073053,-0.025389,0.0087582,-0.045372,0.029139,0.011723,0.044485,0.011023,0.0084699,0.0074441},{-1.0125,0.0085855,0.086709,-0.090986,0.029352,-0.065619,-0.01848,0.070487,-0.0089384,0.058043,0.055573,0.074885,0.071439,-0.074173,-0.090791,-0.064861,0.030095,-0.080179,0.028323,-0.022064,-0.0090628,-0.0018681,0.05848,-0.042779,0.02377,-0.0058049,-0.035314,-0.0033104,0.13509,-0.024865,0.072038,0.017727,0.077052,0.013314,-0.077044,0.0066796,0.0063225,-0.0034487,-0.06153,-0.059325,0.069287,0.051799,0.079317,0.050483,0.054112,-0.031764,-0.079516,0.035123,0.1454,0.12021,0.16143,0.039586,0.082304,-0.1597,-0.24089,-0.3443,-0.11488,0.044301,-0.16407,-0.06992,0.060498,-0.074494,0.032305,0.03282,0.0046227,-0.12168,-0.017404,0.032461,0.29549,0.29334,0.12315,0.13515,-0.0036873,-0.096051,-0.39866,-0.3239,-0.06485,-0.14394,-0.17459,-0.012136,0.040761,0.047785,0.025773,-0.068056,0.08689,-0.035646,0.10754,-0.0080679,-0.0050831,0.17083,0.023853,0.28278,0.45461,0.074027,-0.52161,-0.27704,0.17099,0.12739,-0.32387,-0.096084,-0.0036303,0.057797,-0.086533,-0.028562,-0.081323,-0.10659,0.12459,0.043781,0.11163,0.096376,-0.24411,0.18755,0.6255,0.2543,-0.46421,-0.67187,0.035807,0.088605,-0.39224,-0.096438,-0.013139,-0.080897,-0.022991,-0.076413,0.17008,-0.05729,0.033269,0.31521,0.46628,0.21325,-0.16095,-0.38082,0.1225,0.7872,0.40691,-0.35441,0.13838,0.019103,-0.30247,-0.041162,0.038509,-0.054375,-0.039067,-0.014587,0.19827,-0.24984,0.004762,0.1719,0.23992,-0.053899,-0.2062,-0.56091,-0.21227,1.2829,0.98884,0.058142,0.10886,0.070136,-0.0088823,0.1136,0.051382,0.036679,-0.034343,0.0108,-0.070679,-0.42679,-0.26497,0.12457,0.13532,-0.23379,-0.47751,-0.28925,0.18216,1.1431,0.54512,0.43677,0.30405,0.21173,-0.015044,0.14207,0.13004,0.016691,0.094566,-0.00060362,-0.10908,-0.078401,-0.022627,0.36122,0.27955,-0.29764,-0.43205,-0.20943,0.066353,0.4101,0.053068,0.30774,0.507,0.38905,0.019764,0.059161,0.19157,-0.021862,0.20785,0.24874,0.18082,-0.12683,-0.0020059,0.54538,0.16515,-0.35405,-0.26322,-0.041087,-0.032971,0.079187,-0.13554,0.095771,0.43108,0.1676,0.16287,0.26157,0.034271,0.021089,0.21536,0.24728,-0.044643,-0.27162,-0.08293,0.011616,-0.43489,-0.34814,-0.19954,-0.084775,-0.037086,-0.3345,-0.099847,0.17135,0.23056,0.19183,0.34901,0.3098,0.034062,-0.052034,0.10791,0.13692,-0.035931,-0.091603,-0.20352,-0.21625,0.0081519,-0.18039,-0.49603,-0.0055786,0.23857,-0.23235,-0.17657,-0.10313,-0.082752,-0.10611,0.028018,0.15906,0.14103,-0.058739,0.15304,0.21892,0.21026,0.075731,-0.46705,-0.057702,0.37732,0.22776,-0.22128,-0.18265,0.16512,-0.15108,-0.3946,-0.088247,-0.14719,-0.12603,-0.068661,-0.023155,-0.052361,-0.051838,0.15271,0.17412,0.1127,-0.18654,-0.46742,-0.20023,0.456,0.48007,0.13394,0.089618,0.08291,-0.040086,-0.2499,-0.34743,-0.19084,-0.16323,-0.05107,0.043431,-0.01036,-0.063239,0.021104,0.0097262,0.051489,-0.026644,-0.062164,-0.04864,0.46161,0.94754,0.61597,0.24313,0.21741,-0.18858,-0.18683,-0.14575,-0.087143,-0.071542,-0.10363,-0.072901,0.026815,0.034601,-0.025738,-0.15434,-0.14388,-0.031002,-0.178,0.013936,0.41988,0.82587,0.74478,0.44255,0.23838,0.067166,0.017355,0.017042,-0.062542,-0.17715,-0.080158,-0.030985,-0.022932,-0.077989,-0.041732,0.011767,-0.084348,-0.028975,-0.31255,-0.46429,-0.068804,0.17883,0.17952,0.056441,-0.097944,-0.062837,0.086959,-0.00093591,-0.10213,0.015469,-0.06828,-0.077986,-0.067974,-0.019285,0.0027959,0.077739,-0.067365,-0.064531,-0.2017,-0.34985,-0.2556,-0.1472,-0.085878,0.059523,0.062621,0.00757,0.027197,0.05033,0.067077,0.097869,-0.05018,0.032235,0.061305,-0.041104,-0.042847,-0.0058565,-0.055907,0.0071284,-0.041332,0.0069389,0.02908,0.080763,-0.076401,-0.077103,0.090687,0.10193,-0.090184,0.087875,0.022652,-0.028625,0.034145,-0.059818,-0.081842},{-0.40627,0.0031848,0.0049798,-0.089653,0.057638,-0.028575,0.090097,-0.058493,0.043877,-0.077573,0.0016013,-0.054326,-0.016754,-0.014593,0.066206,0.093251,-0.073847,-0.058704,-0.005976,0.031796,-0.08921,-0.08522,0.07285,-0.016245,-0.031858,-0.090222,-0.039156,-0.081738,-0.031126,0.059269,0.02902,0.04809,-0.016716,0.053794,0.021939,-0.065853,-0.085891,0.030981,0.0077058,0.029742,-0.054048,0.025648,0.077873,0.031941,0.0097972,0.038527,-0.030679,0.086057,0.04687,0.066088,-0.074788,-0.10686,-0.081438,-0.046235,0.050717,-0.051261,-0.091976,0.05654,0.02194,0.047178,-0.011176,0.020796,-0.083741,-0.015418,0.0059118,0.076497,0.1217,0.15298,0.20788,0.24842,0.10905,0.033286,-0.12017,-0.13142,-0.078699,0.035818,0.034728,-0.035768,-0.0025685,-0.048367,0.019659,-0.055744,-0.0471,0.083373,0.021457,0.13659,0.078226,0.1363,0.46302,0.44121,0.32889,0.024464,-0.096265,-0.57361,-0.48161,-0.25837,-0.056658,-0.042984,-0.0074751,0.0012684,0.015085,0.05161,0.025009,0.073495,0.06081,0.068866,0.10809,0.14597,0.49098,0.36034,0.32888,-0.1128,-0.23784,-0.51176,-0.87948,-0.58298,-0.25416,0.0012253,0.25252,0.046946,-0.018515,-0.041035,0.085763,0.048492,0.084984,0.079646,0.24465,0.23772,0.54582,0.42073,0.27396,-0.22325,-0.28362,-0.10726,-0.31875,-0.22793,0.049872,0.24108,0.36056,0.20307,0.025597,-0.087552,-0.017979,-0.10262,-0.10439,0.21791,0.11565,0.28199,0.50254,0.49062,0.13268,-0.21088,-0.18696,0.027593,-0.17406,-0.32733,-0.14747,0.31675,0.33011,0.17219,0.11991,0.026746,-0.0010744,-0.12715,-0.15733,-0.014086,0.013989,0.17368,0.25147,0.37074,0.20983,-0.36758,-0.36605,-0.022587,0.029569,0.010801,-0.001793,0.37086,0.47696,0.20565,0.11306,-0.090124,0.018704,-0.19236,-0.33945,0.031141,0.18934,0.27232,0.19038,0.39797,-0.16726,-0.75448,-0.56517,-0.34153,-0.36383,0.043995,0.27397,0.4034,0.34558,0.24123,0.013141,0.028009,0.0015526,-0.10826,-0.19917,0.18644,0.41341,0.039223,-0.22365,0.068003,-0.16309,-0.38372,-0.44502,-0.23003,-0.32113,0.26899,0.31864,0.16623,0.14273,0.22577,-0.0034985,-0.1036,0.11526,0.022409,-0.15826,0.062735,0.54525,0.1409,-0.23603,0.18191,0.46476,0.45713,0.41007,0.26701,0.31907,0.34747,0.35287,0.012126,0.1708,0.13751,0.025662,-0.085813,0.11999,0.17911,0.22545,0.24887,0.26605,-0.07891,0.10347,0.95886,0.86089,0.41588,0.27996,0.16225,0.039548,0.21798,0.17591,0.0022224,0.096104,0.0080182,-0.052838,-0.055045,-0.0005131,0.17352,0.20007,-0.075789,0.028133,-0.052082,0.43209,0.83736,0.44909,0.17735,0.12285,0.050247,-0.0059065,0.0019557,0.09562,-0.13184,-0.052803,0.11183,0.076594,0.081611,0.11356,0.18493,0.066618,-0.056476,-0.2708,-0.049908,0.27074,0.408,0.27786,0.26302,0.051625,0.054138,-0.062429,0.12141,0.066024,0.065088,0.029727,0.079981,0.057439,-0.01136,-0.053427,0.014293,0.026409,-0.25655,-0.40028,-0.31057,0.038005,0.13871,0.20382,0.46219,0.12524,-0.23734,-0.21284,-0.14044,-0.064177,0.0048226,0.020775,0.058313,-0.077833,0.050495,-0.076933,-0.074029,-0.012645,0.016365,-0.17932,-0.11037,0.17554,0.30132,0.28074,0.31528,0.22212,-0.13733,-0.33565,-0.22059,-0.093851,0.0043242,0.049254,0.07111,-0.065805,-0.051226,0.0028116,-0.067865,0.046782,-0.16138,-0.21767,-0.1693,-0.050857,0.010201,0.084997,0.071129,-0.023144,-0.17861,-0.12662,-0.10118,-0.096334,-0.036003,-0.02448,-0.040641,0.077024,-0.024399,0.0057067,0.057304,0.020358,-0.098434,-0.12588,-0.16597,-0.052539,-0.15147,-0.10506,-0.027009,-0.18364,-0.017424,0.015747,-0.021516,-0.00046606,-0.021192,0.058277,0.091082,-0.019817,-0.083413,-0.02422,-0.059556,-0.011228,0.015338,0.024603,-0.021507,0.085953,-0.093331,-0.077287,-0.073177,0.010486,-0.021421,-0.076621,0.070939,-0.064721,-0.010248,-0.040433,-0.066342,-0.079492},{-1.5541,-0.033613,-0.091377,0.074222,0.0043461,-0.01813,-0.059488,0.030801,-0.019652,-0.083313,0.075264,0.026808,-0.047895,-0.081649,0.013549,0.098677,0.078223,-0.059137,0.064497,0.0081492,-0.092075,0.0023114,-0.077342,-0.066767,-0.067949,0.012146,0.061096,-0.097163,0.035884,-0.093894,0.010491,0.0021386,0.038525,0.012751,0.011884,-0.16491,-0.0082901,0.058229,0.0080771,-0.0040536,-0.06247,-0.037646,0.043516,0.037706,0.09012,0.045569,0.027228,-0.00067036,-0.078455,0.0066976,-0.076049,0.0087899,0.0080651,-0.013993,-0.1428,-0.10081,0.029137,0.0545,-0.022148,-0.051997,0.041875,-0.035684,0.06707,-0.019128,0.014741,0.15715,0.072891,0.13658,0.026927,-0.030798,-0.28914,-0.091859,-0.022467,0.15909,0.35654,0.18763,0.067478,0.062959,-0.07848,0.0017723,-0.0030198,-0.083782,0.078281,0.074811,0.14233,0.229,0.034479,0.087163,-0.22916,-0.46404,-0.43913,0.096908,0.25751,0.33617,0.25627,0.28658,0.21739,0.28502,0.047355,-0.15659,-0.014986,-0.0073951,-0.016977,-0.024013,0.13766,0.06654,0.064217,-0.194,-0.51872,-0.47076,-0.29641,0.176,0.6739,0.26241,-0.0096435,-0.029649,0.0047417,0.018295,-0.095495,-0.24273,0.050465,-0.028869,-0.089839,0.064334,0.05753,-0.18078,-0.25652,-0.11903,-0.46625,-0.47578,0.0088707,0.096173,0.1726,0.43693,0.42721,0.29676,0.12421,0.057339,-0.094532,-0.23698,-0.020893,0.052186,0.069047,-0.0036438,0.056723,-0.15167,0.04284,0.047117,-0.55874,-0.39052,-0.061265,-0.022497,-0.34223,0.43486,0.47664,0.42269,0.35009,0.40153,-0.12884,-0.31302,-0.087383,-0.053959,0.077412,0.020214,0.02915,-0.12179,-0.29977,-0.53975,-0.81032,-0.48147,-0.13877,0.042211,0.24819,0.39627,0.33967,0.15979,-0.04917,0.23957,-0.097751,-0.25904,0.040345,-0.065514,0.051733,0.089352,0.26712,-0.0829,-0.47545,-0.25564,-0.5943,-0.25183,0.061918,0.37774,0.42518,0.16463,-0.26026,-0.24576,-0.0044667,0.43905,0.15855,-0.17771,-0.0069488,0.0077482,-0.068434,-0.0044183,0.34082,0.15697,-0.14885,0.10797,-0.18969,0.24912,0.45956,0.42142,-0.1382,-0.50902,-0.73183,-0.11301,0.077584,0.19101,0.11358,-0.14523,-0.012277,0.099809,-0.060647,-0.066039,0.46157,0.54977,0.32668,0.54129,0.35005,0.056105,0.00085795,-0.37872,-0.4027,-0.59832,-0.29194,0.081005,-0.064978,0.022635,0.050897,-0.24469,-0.097325,-0.0091792,-0.12018,-0.15903,0.39764,0.46116,0.67778,0.62011,0.44213,-0.12899,-0.44567,-0.80079,-0.49115,0.0086442,0.057408,-0.15841,-0.038137,0.05942,0.066763,-0.12882,-0.096377,0.093884,0.00033602,-0.16286,0.14348,0.2908,0.59527,0.43278,0.31545,0.34495,-0.32392,-0.55206,-0.16482,0.15408,0.035572,-0.020195,0.14458,0.088392,0.06798,-0.024038,0.014904,-0.068754,0.017527,-0.19784,0.036655,0.067848,0.046026,-0.042107,0.3903,0.54224,-0.19756,-0.47997,-0.2446,-0.056928,-0.17701,-0.13517,0.11585,-0.19183,-0.14997,-0.17318,0.0076954,-0.017364,-0.053344,-0.086671,-0.25237,0.090757,0.019776,-0.18892,0.54218,0.65005,0.26892,-0.059291,-0.14328,0.21756,0.048297,-0.0048733,-0.044314,-0.17522,-0.1886,-0.10702,-0.027727,-0.040955,0.04311,-0.044366,-0.09231,-0.29443,-0.13175,-0.018211,0.50814,0.72823,0.67369,0.24947,0.021898,0.31462,0.020145,-0.082234,-0.15702,-0.056571,-0.095995,0.053912,-0.0056012,-0.02305,-0.08728,0.032647,-4.5907e-006,-0.27603,-0.5581,-0.68412,-0.26704,0.15655,0.3762,0.18262,0.23501,0.22448,0.10865,-0.15117,-0.16796,0.029776,0.024046,0.037644,0.067852,-0.050412,-0.063201,0.0079094,0.038516,-0.030208,-0.26607,-0.4211,-0.35521,-0.081661,-0.042507,-0.090029,0.11551,0.089287,0.10615,0.080457,0.11242,0.022493,0.021347,0.060649,-0.0050248,0.047371,0.020262,0.004765,0.013488,0.020678,0.066158,-0.075342,-0.098027,0.026526,0.090221,0.064504,0.019035,-0.020655,-0.042734,0.074244,-0.087653,0.013268,0.057157,0.051006,0.017897},{0.56427,0.077971,-0.061596,0.091967,-0.087459,-0.087039,-0.045277,0.047369,-0.074904,-0.030084,-0.047137,-0.018173,0.013871,-0.071298,0.090234,0.017898,-0.0086689,-0.050893,-0.078526,-0.047414,0.0008194,0.031711,-0.079707,0.0025036,-0.0013716,0.0018364,0.084165,-0.098964,-0.022126,-0.072884,-0.026761,-0.013531,0.089954,0.044076,-0.034343,0.065934,0.070172,-0.022979,0.016649,-0.015496,0.086834,-0.066592,0.066275,-0.066256,0.064301,0.0139,-0.128,-0.030925,-0.11148,-0.068403,0.0058915,0.035627,-0.055568,-0.038439,0.019938,-0.0019596,-0.035567,0.0064525,-0.035846,0.020227,0.039936,-0.086196,-0.030989,0.032967,0.048516,-0.090876,-0.073201,-0.021669,-0.22117,-0.088775,-0.068438,0.20098,-0.051247,-0.30765,-0.15865,-0.14039,-0.071908,-0.060275,-0.087902,-0.095514,0.039197,-0.080678,-0.069948,-0.011557,0.048927,-0.20906,-0.10095,-0.22185,-0.34378,-0.20226,0.23389,0.47082,-0.032318,-0.07086,0.17233,-0.13632,-0.16772,-0.23146,-0.082221,-0.13902,0.045938,-0.052504,0.038566,0.044534,0.0049381,-0.0065232,-0.30769,-0.24649,-0.34876,0.13366,0.3992,0.5982,0.36077,0.45496,0.50892,0.31811,-0.18904,-0.23896,-0.37948,-0.22206,0.018464,0.048698,0.044048,0.14925,0.013223,0.20587,-0.17648,-0.41482,-0.17134,0.23204,0.426,0.50047,0.54156,0.14099,0.44694,0.301,-0.089235,-0.27168,-0.10204,-0.31581,-0.11553,-0.078627,0.068541,0.015283,0.2162,0.01649,-0.4396,-0.56971,-0.18382,0.094942,0.72652,0.71439,0.285,-0.013748,0.21466,0.27628,-0.0013375,-0.0081805,-0.19123,-0.29514,-0.0023906,0.014371,0.088034,0.052232,0.062189,-0.32524,-0.43875,-0.44973,-0.22932,0.042186,0.94722,0.88232,0.49503,0.24206,0.40562,0.43292,-0.053916,-0.21055,-0.074672,-0.43983,0.016478,-0.090847,-0.036088,0.10896,0.065313,-0.49195,-0.74027,-0.52051,-0.45956,-0.36532,0.54101,0.66414,0.44557,0.26026,0.37146,0.19842,-0.30208,-0.26569,-0.057894,-0.26767,-0.036785,-0.084811,-0.012985,0.19079,0.20296,-0.48191,-0.91135,-0.82141,-0.61199,-0.64715,-0.049113,0.14579,0.55823,0.12134,0.52103,0.16574,-0.33297,0.048557,0.15247,-0.12183,-0.088089,0.038019,0.12252,0.089398,0.079881,-0.4727,-0.79579,-0.51961,-0.42602,-0.62545,-0.2972,-0.0801,0.13091,0.46139,0.4495,-0.021113,-0.16042,-0.048286,-0.016342,-0.19877,-0.048367,0.061056,0.033242,0.18679,0.3424,-0.1512,-0.31405,-0.32283,-0.54239,-0.62235,-0.044703,0.077569,-0.020847,0.32544,0.13219,0.096568,-0.035553,0.12437,-0.10094,-0.34229,-0.11022,-0.088892,0.034646,0.094466,0.18277,-0.18395,-0.52554,-0.096552,-0.64235,-0.84395,0.025181,0.28368,0.17006,-0.18833,0.15902,-0.06439,0.052402,0.15074,-0.15274,-0.24631,-0.00026251,0.029222,0.068815,0.099316,0.25825,-0.091575,-0.25707,-0.18271,-0.67296,-1.1493,-0.066243,0.17418,0.08707,0.067086,-0.060228,-0.26521,-0.0044255,0.036964,0.017879,-0.25071,0.072683,-0.072214,0.063222,0.065919,0.23542,0.30528,0.40746,-0.096151,-0.78925,-0.74538,-0.40309,-0.092061,0.19629,0.30135,-0.049551,-0.030708,0.25283,0.24093,0.027885,-0.20234,-0.062413,-0.02108,0.055096,-0.040336,0.165,0.39441,0.7036,0.034218,-0.47159,-0.37074,-0.27235,0.0052036,0.10423,0.22477,0.090719,0.14634,0.067687,0.095934,-0.067736,0.019724,0.020913,0.0079125,-0.091341,0.062762,-0.011852,0.46906,0.6087,0.29461,-0.062198,0.029137,0.18329,0.17676,0.10742,0.064647,-0.034852,-0.12405,-0.028256,-0.041428,-0.032309,0.061799,0.076991,0.089918,-0.049147,0.077643,-0.0016138,0.19829,0.29311,0.30489,0.21538,0.09955,0.032072,0.016572,-0.077634,-0.06312,0.092464,0.072472,0.028167,0.074013,0.0078303,0.040943,0.062671,0.016341,0.087657,0.03945,-0.072499,-0.092891,-0.083748,-0.050343,0.067015,-0.0064469,-0.053638,-0.089233,-0.01733,-0.022648,-0.043936,0.064774,-0.071706,0.067491,-0.074436,0.041513,0.043203},{-0.24695,-0.057638,0.028346,-0.019954,-0.061256,0.067414,0.053816,-0.050926,0.039344,-0.05268,0.012194,0.013799,0.033411,-0.087952,0.046352,-0.0097047,0.079108,-0.019683,-0.068043,-0.050401,-0.049204,0.08979,-0.0050795,-0.08375,0.01572,-0.029712,0.087018,0.056822,0.0020186,-0.02845,-0.030157,0.089471,0.086395,-0.02328,-0.03162,0.033272,0.053051,0.051252,0.082267,0.045985,0.024887,0.061809,-0.01834,0.07739,-0.050357,0.012455,-0.035344,-0.030263,-0.039177,-0.12932,-0.11211,-0.085096,0.074459,-0.020394,0.15693,0.15792,0.021393,-0.052109,0.094129,0.015405,0.054597,0.069525,0.0056728,0.046242,0.0054763,-0.027629,-0.032822,-0.11123,-0.17462,-0.11253,-0.071184,-0.086351,0.0024957,0.12644,0.14329,0.35653,0.28885,0.21502,0.12868,-0.011867,-0.024595,-0.091054,0.073614,0.00062085,-0.047078,-0.028623,-0.066071,-0.15155,0.042507,0.22203,0.17717,0.064932,-0.024582,-0.081326,0.044046,0.33263,0.24166,0.2002,0.23164,0.040419,-0.03655,0.092433,-0.078386,-0.002895,-0.0098252,0.029562,-0.089311,-0.20586,-0.0252,0.10836,0.14764,0.20417,-0.20213,-0.036637,0.067393,0.091935,0.25543,0.23138,0.32797,0.074844,0.018971,0.0048093,0.016463,0.11048,0.0063696,-0.012247,-0.1352,-0.33538,-0.1854,-0.20755,0.27983,0.26285,0.19378,0.027326,0.048052,-0.014508,0.10817,0.10519,0.052949,0.14123,0.078356,-0.068924,0.12534,0.15517,0.10467,0.021402,0.019693,-0.19836,-0.16298,0.15041,0.27043,0.57253,0.19918,-0.13762,-0.046993,-0.12571,-0.062609,-0.082688,0.11519,0.17963,-0.054047,-0.071289,0.077737,0.068164,0.072249,0.1604,0.14581,-0.013922,-0.12881,0.23596,0.35502,0.33376,-0.15868,-0.35417,-0.20594,-0.028602,-0.048193,-0.38228,0.14143,0.22716,-0.0018757,-0.0074576,-0.013881,0.22048,-0.10145,-0.00057501,0.42691,0.10596,-0.17078,0.089434,0.43887,0.19364,-0.31856,-0.59501,-0.61919,-0.013978,0.015152,-0.22569,0.14818,0.26778,-0.099804,0.075964,0.013723,0.36882,-0.011228,0.26091,0.72092,0.15637,-0.13641,-0.062306,0.34041,0.19247,-0.66575,-0.76865,-0.5614,0.12963,0.1501,-0.21521,-0.18228,-0.018663,-0.08134,0.01871,0.14542,0.28015,-0.092745,0.24475,0.79058,0.078933,-0.55326,-0.33465,0.35578,0.088962,-0.43781,-0.16345,0.061834,0.33918,-0.14956,-0.50996,-0.22944,-0.026915,0.039381,-0.055063,0.047053,0.36112,0.11322,0.17543,0.5947,-0.18325,-0.42919,0.039599,0.29699,0.11122,-0.18697,0.2013,0.49559,0.45744,0.017342,-0.38987,-0.14844,0.15469,-0.087219,-0.0725,0.096386,0.26009,-0.05844,-0.011424,0.15354,-0.13503,-0.37214,0.033424,0.085911,0.11576,0.086075,0.54198,0.87061,0.46155,0.12577,-0.088867,0.10604,0.21675,0.01931,-0.017858,-0.017143,0.14345,-0.14891,-0.17802,0.22532,-0.036539,-0.20816,-0.056485,-0.074154,0.072058,0.13179,0.29603,0.55994,0.29528,0.051979,0.024471,0.10691,0.19676,0.088863,-0.060952,0.073824,0.047072,-0.16666,-0.1065,0.021152,0.074583,-0.11418,-0.08408,0.12801,0.11051,0.098469,0.20314,0.16352,0.16971,0.027117,-0.012298,0.054722,0.11996,-0.039784,-0.087295,0.08622,0.025635,-0.1235,-0.061299,0.063625,-0.13729,-0.27616,0.012923,0.080275,0.057302,0.01094,0.12552,0.073138,-0.034319,-0.073239,-0.061009,-0.020534,0.089456,0.05177,-0.073543,-0.035548,-0.07149,-0.08061,-0.071762,0.015213,0.08733,-0.010214,0.0027566,-0.023788,0.19385,0.080779,0.020332,0.064436,-0.056551,-0.045714,-0.091316,0.08162,-0.071591,0.077586,-0.063666,0.02193,0.059982,-0.080801,0.052955,-0.038269,-0.028598,-0.091191,-0.033047,0.085467,0.039424,-0.054771,0.074659,-0.046716,0.038656,0.046952,-0.071877,-0.0067939,-0.059534,-0.067541,-0.077541,0.014325,-0.025974,-0.0031099,0.03321,-0.05638,0.036989,0.044408,-0.03574,0.034755,0.024691,0.073164,0.02674,-0.090918,-0.013763,-0.036218,0.089316,-0.071509,0.079383,-0.074192},{0.13788,-0.089362,-0.082838,-0.053513,-0.064919,-0.024582,-0.045793,-0.022499,-0.042785,-0.027515,0.088397,0.057754,-0.058054,0.030084,-0.011537,0.08016,-0.0024853,0.072928,0.050871,0.087901,-0.085224,0.044164,0.046399,0.02691,0.051596,0.086087,0.0031984,0.037666,-0.11948,-0.018615,-0.097954,-0.067414,0.0016764,0.040422,-0.097132,-0.0067294,0.061622,0.074204,-0.048747,0.02677,-0.022742,-0.024323,0.04312,0.046455,-0.053877,-0.056606,-0.0017943,-0.060184,-0.070267,-0.11685,-0.056789,0.015589,-0.056518,0.0003752,-0.049475,-0.0029578,-0.12091,0.021958,0.076386,0.076492,-0.0057284,0.0061057,-0.014013,-0.027521,0.04861,-0.12279,-0.094866,-0.031151,0.036107,-0.02705,0.022105,-0.031675,-0.15656,-0.2826,-0.2732,-0.20501,-0.18965,-0.070931,0.022712,0.084984,0.078957,-0.071238,0.0094591,0.086979,-0.073949,-0.011886,-0.043299,-0.057511,0.11258,0.32577,0.17443,-0.022225,-0.18219,-0.50623,-0.35309,-0.17499,-0.27469,-0.060249,0.0071715,-0.080238,0.031398,-0.057642,0.090063,0.013161,-0.095463,-0.0088493,0.027437,-0.018699,0.17342,-0.0132,0.14374,0.014389,-0.12756,-0.17076,-0.43895,-0.29697,-0.15292,-0.26139,-0.17241,-0.15012,0.075065,-0.044007,-0.076496,-0.011823,-0.16779,-0.11861,0.095547,-0.046347,-0.044624,-0.13079,-0.080994,-0.030152,0.27928,0.054407,-0.24604,-0.29415,-0.29762,-0.25312,0.010369,-0.028427,-0.034115,-0.065284,0.0094186,0.045362,-0.18181,0.029545,0.080101,0.013118,-0.14559,-0.059564,-0.071415,0.33864,0.65495,0.56983,0.036816,-0.38347,-0.37292,-0.23472,0.042868,-0.10814,-0.003825,-0.0077513,-0.013849,-0.14336,-0.17022,0.11049,0.09245,-0.25649,-0.09883,0.11243,0.48718,0.86543,0.99481,0.65424,-0.025123,-0.58045,-0.56778,-0.024862,0.19357,-0.038158,-0.024521,0.053021,-0.020879,-0.12435,-0.23773,-0.11127,-0.14519,-0.15827,-0.14661,0.19177,0.6987,1.151,1.2514,0.65098,-0.16239,-0.41353,-0.36565,0.17706,0.28891,-0.041441,-0.0099103,0.011851,0.014044,-0.10192,-0.53527,-0.14846,-0.072834,-0.08293,-0.11097,0.23282,0.78654,1.121,0.98593,0.30365,-0.023274,-0.12928,-0.094754,0.0907,0.1976,-0.078809,0.010407,0.054557,0.01685,-0.29347,-0.50565,-0.27168,0.011039,0.00041586,0.00054818,0.071869,0.53013,0.76532,0.73619,0.41975,0.090081,-0.37296,-0.34676,0.061894,0.19978,-0.085508,-0.095869,0.091303,-0.055197,-0.20139,-0.3412,-0.018311,0.12659,-0.065857,-0.10573,-0.31546,-0.17341,0.16829,0.50157,0.17722,-0.29935,-0.47885,-0.082815,0.079388,0.16643,-0.057383,-0.090539,0.089772,0.061919,-0.13299,-0.20073,-0.045146,0.1698,-0.027089,-0.33704,-0.54049,-0.23649,-0.074636,0.0034415,-0.33478,-0.37632,-0.11648,0.15944,0.24091,0.25662,-0.011554,-0.10428,-0.031037,0.051495,-0.10794,-0.088881,0.19211,0.24269,-0.073437,-0.27198,-0.46634,-0.21559,-0.23025,-0.50424,-0.62365,-0.41969,-0.10262,0.14026,0.27827,0.3158,0.069759,0.0079247,0.02029,0.031189,0.00471,0.073694,0.18595,0.16425,-0.044106,-0.38564,-0.41131,-0.31203,-0.28642,-0.35273,-0.51849,-0.27802,0.030755,0.029006,0.11233,0.15331,0.003817,0.0071791,-0.0021237,0.048748,0.055862,0.072818,0.23665,0.3765,0.016049,-0.2223,-0.23294,-0.26072,-0.19815,-0.14733,-0.3478,-0.10792,-0.068075,0.0090126,0.11952,0.18295,0.061369,0.017402,0.016232,-0.063598,0.078276,0.076469,0.14967,0.25883,0.13056,0.020381,0.028741,-0.12349,-0.024078,-0.14363,-0.1286,-0.0031751,-0.10274,-0.11562,0.0041677,-0.048163,0.053952,0.080324,-0.03796,-0.035187,0.02549,-0.012358,0.10571,0.082246,0.14388,0.082679,-0.0067143,-0.066872,-0.063278,-0.10378,0.020521,-0.0041183,-0.014066,0.046693,-0.068198,-0.036304,0.091377,-0.025698,-0.0030177,0.0082492,-0.036146,-0.0057324,-0.017646,0.068693,0.020049,0.081435,-0.046401,0.085963,-0.053595,0.057001,0.0049311,0.051295,-0.013498,-0.085077,0.068659,-0.047615,0.07353,0.086946},{0.25608,0.013662,-0.023714,0.022957,-0.048551,-0.037866,-0.0075575,-0.087241,-0.010942,-0.025543,0.027013,-0.014273,-0.078125,0.083823,-0.043865,-0.088031,0.056381,0.019142,0.073674,-0.064508,0.091216,-0.07097,-0.087472,-0.055909,0.034906,-0.08147,-0.025828,-0.059802,-0.029215,-0.039363,0.090963,-0.061744,0.090343,-0.038373,0.073927,-0.031228,0.064168,-0.038047,-0.057084,0.015607,-0.033775,0.088839,0.074313,-0.071864,-0.047301,0.071296,-0.030486,-0.069924,0.091124,-0.054116,-0.079858,-0.066869,-0.032506,0.094982,0.11891,-0.045909,-0.014223,0.058449,-0.0067086,-0.067373,-0.031363,-0.020689,-0.089371,0.048813,0.10302,0.11894,0.024844,0.12019,0.054774,0.036221,-0.0021829,0.059619,0.12469,0.18532,0.20412,0.16548,0.071367,0.022672,0.11387,0.06797,-0.036037,-0.054442,0.032562,0.056901,0.025156,0.11193,0.28917,0.3206,0.065185,0.1471,0.17164,0.25482,0.29745,0.19597,0.21958,0.14996,0.07962,0.1824,0.21171,0.0058649,-0.062628,-0.023048,0.01766,0.09751,0.091924,0.40737,0.35641,0.38602,0.15187,-0.035184,0.15442,0.4709,0.58714,0.3396,0.29633,0.06748,-0.14552,0.053434,0.25031,-0.011019,0.0056093,0.014438,-0.071787,-0.040237,0.33088,0.59022,0.51335,0.22393,0.014708,-0.052034,0.19778,0.38922,0.42463,0.19067,0.22806,-0.098996,-0.18441,-0.23705,0.072006,0.13881,-0.032081,-0.058699,0.052592,0.13526,0.54602,0.86991,0.56322,-0.099725,-0.37816,-0.23124,0.18466,0.35433,0.40645,0.08553,0.042965,-0.17917,-0.045438,-0.24832,0.02238,0.17996,0.083231,0.016955,-0.046641,0.20562,0.57902,0.78232,0.15321,-0.39485,-0.53978,-0.44248,-0.23502,0.047089,0.33071,0.2116,-0.01028,0.14344,0.13207,-0.20018,0.030343,0.1547,0.02469,0.060821,-0.053908,0.21355,0.57209,0.29133,-0.01466,-0.33873,-0.76336,-0.83304,-0.58606,-0.39979,-0.25666,-0.18974,-0.25913,0.1663,0.2624,0.00082063,-0.036802,0.15768,0.070421,-0.016691,0.069617,0.1561,0.32764,0.33575,0.20252,-0.34652,-0.61006,-0.6375,-0.68432,-0.52984,-0.62912,-0.42349,-0.06208,0.084538,0.14176,-0.090665,-0.049184,0.015067,-0.050458,-0.050797,-0.025179,0.18049,0.055878,0.51822,0.37199,-0.084119,-0.020426,-0.13213,-0.31555,-0.15695,0.054481,0.13747,0.16699,0.24983,0.20315,-0.17131,-0.041854,0.10782,-0.048133,-0.072159,-0.058882,0.17282,-0.070255,0.23784,0.36336,0.086013,0.17417,0.27119,0.4029,0.50807,0.29031,0.088822,0.087065,0.13865,0.17547,-0.078792,-0.036184,0.037825,0.063324,-0.080171,-0.013472,0.1675,-0.19119,-0.0067291,0.015035,0.02549,0.22759,0.46946,0.61131,0.71227,0.58476,0.36954,0.25744,0.27338,0.32799,0.15792,0.025557,0.069401,-0.065185,-0.029589,0.088686,-0.037744,-0.062289,-0.14984,-0.28,-0.13783,0.22495,0.27722,0.52672,0.49146,0.65152,0.53172,0.36812,0.65629,0.4524,0.22756,0.15545,-0.014835,-0.084549,-0.0009487,-0.024679,-0.032931,-0.15476,-0.30079,-0.43668,-0.32373,0.0068035,0.25341,0.38629,0.30915,0.43101,0.51736,0.52147,0.54114,0.35612,0.22139,0.11108,0.056252,-0.018083,-0.014163,-0.070731,-0.038516,-0.11326,-0.26179,-0.50958,-0.53175,-0.1168,0.071575,0.19763,0.26196,0.35203,0.3467,0.46799,0.32457,0.14378,0.15485,0.027472,-0.044088,-0.0094617,0.057132,-0.012532,-0.063335,0.012913,-0.069347,-0.39898,-0.50735,-0.20086,0.021008,0.15625,0.17466,0.055658,0.23038,0.2691,0.17333,0.13827,-0.048099,-0.087623,0.060937,-0.065972,0.014886,-0.052673,0.046533,0.057604,-0.02057,-0.031248,-0.14257,-0.15217,0.068296,0.0016292,-0.0088008,0.070522,0.018172,-0.038153,0.0123,0.017015,0.035516,0.081624,0.038455,-0.0078803,0.035023,-0.0056893,0.07796,0.047065,-0.057033,0.027213,-0.0070218,0.062235,-0.080264,-0.0097014,-0.086799,-0.0025224,0.094237,0.014128,-0.0032819,-0.042605,0.0088242,0.0015519,0.05578,0.092101},{0.17801,0.05846,0.045336,0.026654,0.043497,-0.089749,-0.050764,-0.04095,0.049669,-0.025248,0.032996,-0.055362,-0.052478,0.058645,0.024832,-0.016135,0.036492,0.084957,0.044736,-0.037814,0.045323,-0.068931,-0.030242,-0.0363,0.015887,0.030198,0.059819,-0.092898,-0.053436,0.072938,-0.038875,-0.035996,0.033962,0.014323,-0.054995,0.041677,-0.020267,-0.029144,-0.028354,-0.072114,0.087792,-0.080617,-0.087644,0.028074,0.0035989,0.011817,-0.07382,-0.057113,-0.073325,0.050252,-0.027686,0.067363,-0.0075996,-0.064513,-0.11761,-0.10167,0.039313,-0.026522,0.010609,0.012119,0.04167,0.020942,-0.027243,-0.086807,0.036342,-0.10731,-0.12461,-0.2717,-0.065036,0.06675,0.035591,-0.13764,-0.01896,-0.052319,0.010998,0.022879,-0.034714,-0.14643,-0.16745,-0.058597,0.016661,0.063915,0.052062,-0.001579,0.029889,-0.20446,-0.34411,-0.28201,-0.05949,-0.1146,-0.23763,-0.26113,-0.28647,-0.15815,0.1806,0.13167,0.090596,-0.079628,-0.064887,0.036652,-0.031416,0.032427,0.069649,0.068767,-0.13879,-0.31424,-0.164,-0.047227,0.091361,-0.028801,-0.18171,-0.15576,-0.37437,-0.29481,0.121,0.16238,0.28867,0.16208,-0.1811,-0.038049,0.040715,-0.091134,0.029641,0.026756,-0.050379,-0.26903,-0.0057036,0.37146,0.35229,0.044033,-0.15928,-0.063142,-0.014852,-0.11441,0.34499,0.42063,0.32956,0.13584,-0.1691,-0.19689,-0.058748,-0.00069677,-0.046186,0.15665,-0.2416,-0.39711,-0.042813,0.27378,0.52597,0.13442,-0.17959,-0.027142,0.11227,0.11561,0.28853,0.46136,0.58112,0.070107,-0.26187,-0.12334,0.068067,4.4451e-005,0.051351,0.076612,-0.24416,-0.20836,0.05841,0.3145,0.30134,-0.070953,-0.13533,0.041077,0.28487,0.32331,0.5392,0.49504,0.2877,-0.19879,-0.26651,-0.21835,-0.094591,0.0085479,-0.016309,0.09986,-0.15604,-0.039511,-0.23513,0.12545,0.16315,0.069819,0.11016,0.40085,0.83707,0.88136,0.68381,0.28159,0.0041231,-0.46043,-0.20887,-0.20482,-0.051615,0.049563,-0.051473,0.024781,0.097536,0.067746,-0.43747,-0.15782,0.037042,0.42504,0.55237,0.70089,0.97146,0.53412,0.23294,-0.053819,-0.20529,-0.31671,0.038975,-0.049789,-0.080229,-0.015822,-0.028311,0.072496,0.19644,-0.011633,-0.48691,-0.31219,-0.14716,0.058615,0.19536,0.19114,-0.16869,-0.52064,-0.37771,-0.17911,-0.13662,-0.058182,0.0494,0.0037449,0.073552,-0.084534,0.05271,-0.032996,0.36211,0.016374,-0.37429,-0.094916,-0.57211,-0.6595,-0.41753,-0.11992,-0.40059,-0.58551,-0.47985,-0.049042,0.20904,0.078209,-0.032611,0.023371,-0.068793,0.0022258,-0.048291,0.14574,0.36759,0.16426,-0.074545,-0.1786,-0.68101,-0.63951,-0.2626,-0.039562,-0.10913,-0.23705,-0.014638,0.23201,0.17208,0.11063,0.053658,-0.08531,-0.018228,-0.084316,0.099962,0.011671,0.2181,0.17691,0.023778,-0.15746,-0.48987,-0.37304,-0.17633,-0.20919,-0.050024,0.027831,-0.056369,0.13575,0.023955,-0.055607,-0.027995,-0.062784,-0.013798,-0.042481,-0.086603,0.14037,0.11854,0.13864,0.21711,-0.16221,-0.47944,-0.33472,-0.2553,-0.18147,0.027893,0.0047769,0.08656,0.13412,0.017132,-0.012029,-0.011606,-0.0097399,-0.11348,0.011241,-0.00071717,0.067128,0.096618,0.063477,0.075306,-0.023702,-0.35423,-0.21785,-0.30918,-0.14295,-0.17157,0.15988,0.34589,0.15773,0.14193,0.0047742,0.067033,-0.022453,-0.029504,0.031239,0.082963,-0.024703,0.061964,0.031859,0.20734,0.18991,0.088658,-0.10446,-0.08891,-0.080523,-0.049987,0.21194,0.20197,0.050628,0.17935,-0.046604,0.024987,-0.064628,-0.088594,0.042965,-0.040073,0.053451,-0.073936,0.012323,0.092417,-0.041179,0.05699,0.0011105,0.079178,0.07388,0.11905,0.10552,0.086628,0.093571,-0.044994,0.058367,-0.0073078,-0.054485,-0.060859,-0.035556,0.012608,-0.091345,0.047514,0.069145,-0.04677,-0.081083,-0.078968,-0.034389,0.073696,0.041496,0.058287,-0.024333,-0.014856,-0.09009,-0.072719,0.065944,0.058508,-0.087526,-0.017411},{0.25499,0.088624,-0.089897,0.048502,0.067092,0.080743,0.078539,-0.03458,-0.037032,0.091889,-0.0094056,0.057528,-0.081843,-0.013834,0.034796,-0.016253,0.059219,-0.0020964,-0.083276,-0.0036543,-0.052355,-0.0043022,0.055501,-0.02246,-0.024142,0.0077642,0.079524,0.022407,-0.082268,0.089864,-0.033135,-0.085208,-0.0002642,0.096133,0.072633,-0.02224,-0.067167,-0.033121,-0.088557,-0.026282,0.031941,0.03779,-0.0099199,-0.028521,0.085722,0.098599,0.12326,0.13776,0.1228,0.11123,0.12635,0.0074393,-0.0091754,-0.026097,0.048855,0.033212,0.11095,0.079078,-0.010256,-0.087735,0.070078,0.067729,-0.027171,-0.063782,0.11058,0.104,0.19628,0.061129,0.14895,0.063124,-0.062301,0.063779,-0.0021551,0.11741,0.25987,0.13562,0.08529,0.032722,-0.032959,0.045718,0.01983,0.078186,0.04655,-0.052534,0.087222,0.10849,0.18762,0.073577,-0.21456,-0.6742,-0.49245,0.062632,0.24134,0.054477,0.16478,0.061597,0.022725,0.068199,0.025244,-0.055927,-0.071884,-0.04748,-0.083802,-0.011807,0.047211,0.23716,0.13814,-0.03097,-0.40837,-0.39098,0.058965,0.36997,0.57513,0.27585,-0.30607,-0.12623,-0.11512,-0.155,-0.11755,-0.11427,-0.083234,-0.023251,-0.0092004,-0.065835,0.24444,0.45875,0.049254,-0.40325,-0.46084,-0.045011,0.14264,0.13847,0.1774,-0.0089313,-0.39407,-0.39896,-0.49261,-0.13059,-0.015869,0.02704,-0.030522,0.017403,-0.037821,-0.045986,0.27433,0.2827,-0.4912,-0.51416,-0.40815,0.18294,0.24008,0.013054,-0.26999,-0.44302,-0.63558,-0.66209,-0.44753,-0.088086,0.14828,-0.065589,0.020248,-0.059033,0.027453,-0.10078,0.098261,-0.16906,-0.76458,-0.39517,-0.0072299,0.28744,0.49824,0.53004,-0.032132,-0.33126,-0.38276,-0.58366,-0.26,-0.026672,0.10709,-0.19605,0.10216,0.0055972,-0.13736,-0.10277,0.087875,-0.24343,-0.82395,-0.82558,-0.13639,0.24171,0.4346,0.32803,0.34224,0.41772,0.24928,-0.35934,-0.33952,0.061158,0.18167,-0.23503,0.0016699,0.024548,-0.044105,-0.27691,0.098255,-0.42218,-1.2102,-1.0478,-0.22961,0.18083,0.0064388,0.11562,0.45359,0.63449,0.12633,-0.22497,-0.082168,0.22815,0.16621,-0.14074,-0.039677,-0.044803,0.040821,-0.039101,0.24028,-0.22633,-1.3869,-0.3584,0.37165,0.1333,0.025002,0.16205,0.37474,0.40669,-0.059357,0.11666,0.20684,0.54372,0.042839,-0.21768,0.014532,-0.083846,-0.12797,0.032125,0.18214,-0.29123,-0.77111,-0.11496,0.46277,-0.021953,0.016683,0.21718,0.40273,0.20755,-0.021721,0.078774,0.18853,0.33132,-0.048127,-0.33921,-0.065054,0.061127,-0.025917,0.010104,0.095426,-0.1407,-0.15882,-0.085827,0.097251,0.052514,-0.051936,0.35354,0.54376,0.022746,-0.28612,-0.096132,0.011815,0.30191,-0.17884,-0.29004,-0.011368,0.068289,0.026181,-0.062072,0.1462,0.52383,0.17768,0.11772,0.032773,-0.15336,0.12145,0.40153,0.45024,-0.13591,-0.027657,0.14227,0.14146,0.1427,-0.25084,-0.077044,-0.00087985,-0.035373,0.018491,-0.021773,0.164,0.50314,0.45886,0.087136,0.017691,-0.23314,-0.079533,-0.015155,0.0013115,-0.19599,-0.068113,0.10706,0.068006,-0.035711,-0.16344,-0.15912,0.066324,-0.016655,0.033205,0.041165,0.11817,0.54617,0.44045,0.043297,-0.15114,-0.18514,-0.15272,-0.07888,-0.020814,-0.22799,-0.080807,-0.22006,-0.051863,-0.083546,-0.1598,-0.044739,-0.043762,0.041413,0.032455,0.080209,0.1258,0.15054,0.0043961,-0.098978,-0.18121,-0.20774,-0.24592,-0.095612,-0.10244,0.036694,-0.093823,-0.14749,0.037932,0.0081676,-0.066431,-0.066094,-0.089311,-0.029706,0.0079405,0.064042,0.065514,-0.06466,0.042989,-0.16252,-0.039,0.025423,-0.093256,-0.052511,0.010016,-0.036664,-0.0010524,-0.02566,0.045181,-0.054461,-0.064269,-0.087115,-0.023179,0.0002084,0.054752,0.038131,-0.01239,0.022622,-0.090378,0.024153,-0.089873,-0.021636,0.059581,-0.0084735,-0.041245,0.029236,0.033738,0.069141,-0.083186,-0.085347,0.041825,-0.033132,-0.001509},{-0.069779,0.060006,0.043434,-0.070593,-0.01043,-0.029786,-0.076061,-0.030319,0.075628,0.080707,-0.09008,0.00065288,-0.063593,0.0028076,0.0482,-0.030635,0.022265,0.067305,-0.026835,-0.080189,-0.03544,0.064178,0.067228,0.049741,-0.043275,-0.016986,0.054577,-0.050452,-0.046618,-0.078693,-0.066768,0.06219,0.032363,0.08882,-0.088972,0.037383,0.069233,-0.0296,-0.050043,-0.043799,-0.061334,-0.061731,0.04406,0.01322,-0.017279,-0.029237,0.068863,0.071335,0.0073707,-0.055763,-0.076986,0.0066254,0.071357,-0.051924,-0.092223,-0.096075,0.020608,0.061436,-0.064779,0.057855,-0.06245,-0.02517,0.038112,-0.068161,0.053625,-0.044534,-0.10654,-0.064833,-0.0087257,0.038159,-0.030003,-0.11288,-0.16117,-0.1671,-0.2584,-0.15658,-0.12151,-0.048173,0.041064,0.07515,-0.014449,0.028361,0.078119,-0.084131,0.0728,0.0056114,-0.06714,-0.032776,0.018988,-0.19124,-0.25659,-0.3307,-0.58421,-0.59801,-0.52393,-0.31158,-0.1399,-0.12717,0.11284,-0.053845,-0.024877,0.079777,-0.0018927,-0.064481,0.014069,-0.10834,-0.18982,-0.26824,-0.18108,-0.20969,-0.47722,-0.72595,-0.86328,-0.67266,-0.61718,-0.54965,-0.28694,-0.1175,0.00073679,0.15656,-0.035899,-0.057529,0.084187,0.08815,-0.05126,-0.077845,-0.33758,-0.38495,-0.2122,-0.23522,-0.43978,-0.68841,-0.64839,-0.55371,-0.51076,-0.43272,-0.18516,-0.064822,0.12679,0.13941,0.034488,-0.043994,0.033735,-0.076246,-0.055385,-0.35227,-0.45273,-0.28203,-0.10512,0.025854,-0.19573,-0.23304,-0.20891,-0.088286,-0.07053,-0.2259,-0.31595,-0.14735,0.068248,0.021306,0.038082,0.05843,-0.028974,0.042572,-0.060363,-0.23229,-0.19329,-0.012506,0.11479,-0.077925,-0.023972,-0.011946,0.27493,0.27695,-0.0061284,-0.19399,-0.33779,-0.25266,-0.1923,0.064362,-0.056397,0.048872,-0.013146,-0.12186,-0.1628,-0.11685,0.027474,0.064184,0.026268,0.027733,0.25146,0.41888,0.53652,0.68812,0.42077,-0.16367,-0.49815,-0.43394,-0.2819,-0.049115,0.099622,0.0060905,0.043746,-0.11198,-0.33344,-0.16196,-0.084134,0.045646,0.1556,0.33782,0.65011,0.74017,0.77189,0.58536,0.35616,-0.39841,-0.6107,-0.36932,-0.037609,0.031708,-0.010303,-0.032411,0.020485,-0.19286,-0.33174,-0.35082,-0.00031246,-0.14647,0.17102,0.37989,0.58211,0.43569,0.3313,-0.12328,-0.37271,-0.63402,-0.45317,0.0032355,0.13231,0.096686,-0.017278,0.084755,-0.095516,-0.20029,-0.50767,-0.4227,-0.10421,-0.1421,-0.15884,0.18809,0.24002,0.13044,-0.09155,-0.42002,-0.69632,-0.62631,-0.32785,0.19125,0.22652,0.020598,-0.0078067,0.023948,-0.011334,-0.10188,-0.19684,-0.13408,-0.10478,-0.24061,-0.19665,-0.12698,-0.098963,-0.35591,-0.50317,-0.79414,-0.85264,-0.50124,-0.19098,-0.10218,0.013018,-0.041396,0.013462,0.088242,-0.072994,-0.061493,-0.15743,0.021463,-0.072687,-0.4348,-0.48858,-0.32959,-0.5008,-0.69233,-0.66864,-0.84211,-0.59762,-0.36602,-0.033924,0.0012392,0.074474,-0.029288,-0.033403,-0.091073,-0.043061,-0.03143,-0.064369,-0.066177,-0.11384,-0.44932,-0.40179,-0.49304,-0.57461,-0.60794,-0.6358,-0.42925,-0.30604,-0.2252,0.049733,0.06353,0.068808,-0.014871,-0.082293,0.015553,0.04966,-0.038798,-0.019417,0.085193,-0.15514,-0.25412,-0.31882,-0.28435,-0.40114,-0.50594,-0.38399,-0.13232,-0.11633,0.010384,-0.09599,-0.072901,-0.010332,0.070312,-0.041834,-0.04367,-0.047242,0.082719,-0.0089429,-0.071481,-0.01041,0.0041844,-0.12484,-0.074422,-0.13902,-0.042142,-0.11956,-0.01963,0.03619,-0.058664,0.034947,-0.0094679,0.05464,-0.00020461,-0.072159,-0.015835,0.040422,-0.049489,0.029757,0.0057227,-0.033732,0.0037816,-0.018644,0.032786,0.0066938,-0.052017,-0.026131,-0.03647,-0.077763,0.054999,0.035678,0.030837,0.019843,-0.070101,0.05531,0.020382,-0.044012,0.0053927,-0.045202,0.065227,-0.092493,0.04374,0.08553,-0.071138,0.062101,0.051093,0.056658,0.0066184,0.015011,0.037324,-0.010876,-0.045671,0.020488,0.08526,0.025745},{0.28181,0.0095637,-0.08796,-0.0045427,0.0076213,-0.061518,-0.079803,-0.0043895,0.056424,0.086118,0.031821,-0.055064,0.0117,0.085969,0.013842,0.090407,-0.0045793,-0.063337,-0.0071934,-0.024138,0.059524,-0.077167,0.050553,-0.021499,-0.091766,0.020406,0.051671,0.072886,-0.027623,-0.054277,0.036055,0.03048,0.012183,0.071266,0.06773,0.054291,0.011411,-0.075258,-0.017612,-0.048262,-0.049128,0.056337,0.011828,0.037454,-0.021129,0.084104,-0.047402,0.069253,0.12432,0.061813,0.042957,0.036021,-0.082938,0.047927,-0.049663,0.066158,-0.028803,0.063992,-0.0061148,-0.03561,-0.053695,0.068048,-0.01339,0.050132,-0.0078661,0.076826,0.081368,0.057163,0.056429,0.059731,-0.047149,-0.022797,-0.041098,-0.23576,-0.21199,-0.11409,-0.046725,-0.0019712,-0.00014497,-0.069656,-0.01299,-0.0056739,-0.060722,-0.00040131,-0.089761,0.093645,-0.010891,-0.034573,0.19366,0.10511,0.034372,-0.2245,-0.36081,-0.61583,-0.83942,-0.6696,-0.36221,0.0066627,0.26147,0.099948,-0.068621,0.040599,-0.071044,0.058263,0.088033,-0.10117,-0.10919,-0.1322,0.011752,0.069756,0.14921,-0.1776,-0.37147,-0.604,-1.0611,-0.93781,-0.39069,0.10246,0.25172,0.14565,-0.051787,-0.034061,0.064981,-0.073977,-0.027435,-0.26803,-0.15314,-0.23172,-0.064518,0.078123,0.041445,-0.086634,-0.14783,-0.26658,-0.83529,-1.0136,-0.50153,-0.046052,0.12764,0.33461,0.10381,-0.043471,0.097545,-0.14552,-0.19602,-0.30254,-0.28365,-0.084993,-0.077328,0.094183,-0.27318,-0.35375,-0.13311,0.20393,-0.22696,-0.46719,-0.46719,-0.35416,-0.0094936,0.35877,0.038738,0.0040202,-0.021429,-0.080142,-0.084845,-0.43332,-0.2529,-0.16417,-0.10185,-0.31794,-0.45537,-0.31962,0.13783,0.2511,-0.085615,-0.28609,-0.4587,-0.60785,0.015609,0.38666,0.040313,-0.019431,0.042989,0.1152,-0.37657,-0.75037,0.089934,0.051876,-0.19004,-0.20982,0.10196,0.20233,0.44536,0.42031,0.11363,-0.29588,-0.49169,-0.67187,-0.17026,0.33973,0.097641,0.046732,-0.031193,0.11867,-0.65322,-0.67233,0.28981,0.16836,0.2842,0.63868,0.60287,0.59142,0.68779,0.43182,0.12465,0.041676,-0.47547,-0.40818,-0.087301,0.23301,-0.023065,-0.065168,0.096088,0.070982,-0.46909,-0.58713,0.0030161,0.21754,0.37086,0.37398,0.4198,0.49127,0.62243,0.04317,-0.18342,-0.23309,-0.47767,-0.36923,0.090641,0.23112,0.099728,-0.035024,0.0952,0.079777,-0.37428,-0.42559,0.089959,0.07339,0.077038,0.41655,0.64653,0.79454,0.70566,0.18731,-0.36328,-0.53415,-0.6158,-0.23148,0.0013228,0.24478,0.054802,0.031551,0.099043,0.1101,-0.10675,0.01617,0.14989,-0.25115,0.051853,0.34486,0.81557,0.71356,0.33228,-0.10695,-0.27477,-0.6027,-0.60856,-0.28038,0.049302,0.043629,0.014917,-0.0021531,-0.062587,-0.0085963,-0.0023692,-0.099841,-0.0078128,-0.31157,-0.12908,0.10604,0.34228,0.16038,-0.4044,-0.43984,-0.43432,-0.30514,-0.23053,-0.15999,0.060054,0.096039,-0.070286,-0.092359,0.028124,0.047512,0.12227,-0.181,-0.19821,-0.62835,-0.38963,-0.15383,-0.42532,-0.29514,-0.47428,-0.6015,-0.59383,-0.3607,-0.28402,-0.053158,0.15453,0.038726,-0.06279,-0.029032,-0.025872,0.037121,0.0094401,-0.232,-0.56324,-0.68366,-0.54607,-0.30629,-0.43038,-0.28359,-0.34671,-0.36747,-0.41546,-0.18375,-0.19182,0.0086666,0.054034,-0.066858,0.092895,0.060544,0.083951,0.091108,0.031496,-0.10689,-0.294,-0.40527,-0.14913,-0.085999,-0.21882,-0.065318,-0.21954,-0.23338,-0.086737,-0.11282,0.0068482,-0.080092,0.072894,0.065569,-0.092699,-0.02259,-0.084833,-0.004381,-0.060676,-0.026098,-0.06829,-0.14973,-0.069839,0.065851,-0.036535,0.039006,-0.0022155,0.012379,-0.067155,-0.022846,0.009574,-0.0058903,-0.007856,0.085721,-0.059883,0.00027304,0.034219,-0.083312,-0.04072,-0.10452,-0.0013685,0.027177,-0.0071129,0.05225,-0.0066197,-0.040128,-0.052005,-0.060504,0.029644,-0.051344,-0.061581,0.083733,-0.088678,-0.0035052,-0.029981},{-0.21768,-0.0019423,0.072987,-0.018415,-0.033231,-0.070967,-0.070033,-0.086257,-0.044135,-0.032537,0.013408,6.243e-005,-0.073787,0.0080327,0.017835,0.058721,0.030549,0.063334,-0.084367,0.072367,-0.074679,0.075862,-0.043371,-0.086732,0.088727,-0.031956,0.053509,0.033106,-0.013958,0.0041174,0.092242,0.084118,-0.043574,0.068585,0.08097,0.025055,0.053358,-0.0064573,-0.091018,0.082214,-0.0022448,-0.067006,0.0041762,0.074528,0.045679,-0.077795,0.04735,-0.055323,0.17507,0.19322,-0.080186,-0.16845,-0.040161,0.016734,-0.073127,-0.12781,-0.13536,0.0078214,0.070545,-0.025046,-0.06448,-0.085741,-0.00065138,-0.019318,-0.10436,-0.0042356,-0.022273,0.10354,0.25029,0.16131,-0.10892,-0.22131,-0.23595,-0.1207,-0.061952,-0.04226,0.0096242,-0.0051072,0.021211,0.022785,-0.025542,0.008733,-0.04273,0.050849,-0.19391,-0.16029,0.080197,0.33097,0.33235,-0.075444,-0.17917,-0.20755,-0.35926,-0.26815,-0.034974,0.30469,0.36883,0.25125,-0.093991,0.050239,-0.020848,-0.033212,-0.037437,0.034341,-0.19354,-0.085532,0.45467,0.64336,0.43186,-0.097934,-0.29713,-0.44985,-0.54196,-0.42133,0.047378,0.49268,0.69963,0.27334,0.062824,-0.11695,-0.062828,0.082768,-0.014357,0.022916,-0.19622,0.23025,0.61409,0.70941,0.53316,-0.19716,-0.41045,-0.3197,-0.56323,-0.65383,-0.16133,0.2887,0.49008,0.48349,0.22212,0.010149,-0.018232,-0.057863,0.062443,-0.099444,-0.14671,0.2142,0.39172,0.41834,0.45673,-0.0048802,-0.24874,-0.1436,-0.15345,-0.16233,-0.24031,0.15322,0.07881,0.86865,0.38118,0.021927,0.0079427,-0.066471,-0.031884,-0.062868,0.066947,0.24902,0.2515,0.3514,0.22107,0.21952,-0.19224,-0.40636,-0.20936,-0.17984,-0.21343,0.096136,0.561,1.0704,0.34927,-0.14294,0.14226,-0.029411,0.052666,-0.0066832,0.38059,0.44308,-0.0049579,-0.11784,0.20765,0.12508,-0.43438,-0.56598,-0.30091,-0.3533,-0.45294,-0.24109,0.50982,1.0836,0.24131,-0.0803,0.11351,0.083376,-0.032367,-0.11307,0.45236,0.36323,-0.37902,0.19012,0.40015,-0.17791,-0.22025,-0.56515,-0.26116,-0.29156,-0.40835,-0.52742,0.46021,0.87486,0.62546,-0.018473,0.03918,0.045071,-0.037737,-0.22505,0.42851,0.32887,-0.40008,0.27168,0.22993,-0.24769,-0.43227,-0.32338,-0.66657,-0.29892,-0.30034,-0.34411,0.31126,0.86393,0.64687,0.081815,0.10783,-0.0021759,-0.038275,-0.006371,0.36066,0.25922,-0.046291,0.35317,0.37642,-0.22839,-0.32946,-0.35525,-0.47698,-0.20913,-0.25573,0.12814,0.40811,0.51151,0.28752,-0.0061808,0.084458,-0.013413,-0.037706,-0.15107,0.16524,0.082616,0.24141,0.3893,0.29492,0.29349,-0.27142,-0.35342,-0.05355,-0.08921,0.0024388,-0.12717,-0.016755,0.31572,0.10554,-0.018008,0.044404,-0.074391,0.023887,-0.21882,-0.1219,0.28481,0.15151,0.25017,0.26821,-0.1053,-0.55135,-0.57411,0.1102,-0.024455,-0.23569,-0.25493,-0.082066,0.024753,-0.021702,-0.20213,0.0028053,0.0042536,0.016205,-0.15865,-0.051504,0.23658,0.1985,0.34697,0.24265,-0.097561,-0.23422,-0.51647,-0.10533,0.082364,0.12554,0.052407,0.12852,0.26987,0.027403,-0.055338,-0.067134,-0.01509,0.042918,-0.023163,-0.15255,0.095457,0.32612,0.80549,0.47174,0.096042,0.12929,0.16558,-0.087888,-0.046796,0.060734,-0.013052,0.1064,0.020343,-0.10196,-0.061545,0.013843,-0.010318,0.01471,0.070862,-0.077276,-0.073039,0.38543,0.64691,0.37031,-0.020994,0.022681,0.22103,0.1564,-0.05858,-0.10328,-0.14532,-0.061865,-0.010712,0.0080352,-0.030664,-0.088688,-0.040093,0.027284,0.065127,-0.0049291,0.0041123,0.052298,0.17373,-0.028011,-0.044613,-0.00086345,0.022847,-0.089754,0.016105,-0.10025,0.031823,0.057075,-0.018535,0.00050972,-0.09038,0.019502,0.049324,-0.036942,-0.042241,0.0014439,-0.031753,-0.027127,-0.040154,0.00081162,0.077136,0.030376,0.03545,0.085814,0.00051604,-0.030639,0.024911,-0.0078615,-0.038056,-0.034466,0.090571,-0.04041},{0.27753,-0.0855,0.00928,-0.040239,-0.059139,-0.0063405,0.022556,-0.023562,-0.014139,-0.076828,0.075442,-0.070276,-0.030886,0.083092,-0.05774,-0.0059548,-0.022707,0.017095,0.012613,-0.051579,-0.034132,-0.076571,-0.028844,0.032842,-0.017056,-0.04417,0.059235,0.074734,0.025618,-0.050176,0.032951,-0.0072256,-0.01595,-0.033653,-0.077255,-0.033287,-0.015542,0.015861,0.081225,-0.039685,0.032357,0.055862,0.044498,-0.030901,0.056122,0.069287,-0.054604,0.035218,-0.028616,0.14134,-0.012656,-0.024045,0.017206,0.068417,0.080979,0.083534,-0.093762,-0.026828,-0.029914,-0.071424,0.026063,-0.073431,0.064011,-0.0041099,-0.027393,-0.0053856,-0.0027067,0.0025101,0.1435,0.077091,0.11429,0.16073,0.19359,-0.01849,-0.18776,-0.20084,-0.15495,-0.014386,0.14552,-0.045861,0.049328,-0.058595,-0.049972,-0.06809,0.003446,-0.050362,-0.071093,0.21089,0.14143,0.073417,0.0017233,-0.01528,-0.11894,-0.078837,-0.17353,-0.30642,-0.48291,-0.094334,0.11597,0.03351,0.086359,-0.003189,-0.081975,-0.072657,-0.025583,-0.20741,-0.12671,0.16851,0.2138,0.18853,0.099903,0.026911,-0.099134,-0.029097,-0.16843,-0.48941,-0.56382,-0.1183,0.23198,0.19762,-0.056712,-0.015821,0.053706,-0.032051,-0.069707,-0.20395,0.034255,0.21359,0.1801,0.19679,0.11765,-0.032446,-0.082911,-0.030996,-0.316,-0.5768,-0.46428,-0.1601,0.12729,0.23706,0.051727,-0.044458,-0.12299,-0.11379,-0.062919,-0.28765,-0.0085987,0.23557,-0.029436,-0.15536,-0.12719,-0.10975,0.074387,-0.096687,-0.30383,-0.64247,-0.69598,-0.46952,0.039422,0.30141,0.03539,-0.068308,0.0546,-0.103,-0.29822,-0.36694,0.13646,0.18924,0.011174,-0.40874,-0.3674,-0.026831,0.4248,0.088188,-0.098359,-0.50653,-0.76822,-0.45106,0.27356,0.38016,-0.026242,-0.053403,-0.11034,-0.089218,-0.5716,-0.33701,0.42456,0.16804,-0.26121,-0.39644,-0.53408,-0.042544,0.2911,0.37032,0.068912,-0.34957,-0.55633,-0.43328,0.22115,0.2238,0.080064,-0.013754,-0.1308,-0.23116,-0.71382,-0.2829,0.30111,-0.046261,-0.44471,-0.40106,-0.59559,-0.22861,0.0034349,0.36273,0.24315,-0.20455,-0.61952,-0.35577,0.22003,0.31155,-0.0079486,-0.091726,0.050746,-0.29782,-0.59121,-0.30175,0.41173,0.29122,-0.078185,0.046303,0.2836,0.4675,0.53714,0.53904,0.22063,-0.38544,-0.62983,-0.10598,0.22558,0.16256,0.037328,0.019033,-0.13672,-0.32376,-0.63466,-0.28046,0.42576,0.40522,0.25241,0.49673,0.62251,0.54241,0.70268,0.47953,-0.14117,-0.44024,-0.30717,-0.2287,-0.0075161,0.10382,0.057365,0.0065571,-0.015274,-0.27127,-0.60979,-0.46862,-0.05736,0.18514,0.32582,0.44222,0.37195,0.40194,0.32286,0.08196,-0.33318,-0.38375,-0.19408,-0.27653,0.022518,0.025116,0.017322,-0.014579,-0.061376,-0.085147,-0.29232,-0.33925,-0.012561,0.30793,0.42901,0.1972,0.11831,0.084114,-0.18331,-0.43909,-0.41925,-0.22917,-0.2375,-0.037199,0.057539,0.18755,0.086181,-0.047229,0.078779,0.0097982,-0.11102,-0.19894,-0.061321,0.25842,0.32949,-0.058523,-0.179,-0.10553,-0.34751,-0.60142,-0.51438,-0.23234,-0.12502,-0.00081364,0.067441,0.091222,-0.036765,-0.036443,0.069662,-0.085948,0.016321,-0.12941,0.036624,0.097652,0.11754,-0.1176,-0.25156,-0.27392,-0.24058,-0.32521,-0.32257,0.05423,0.10255,0.075357,0.11352,0.035094,0.024838,-0.059499,0.039145,0.057554,-0.027437,0.028356,-0.042587,-0.095991,-0.031498,-0.062706,-0.20094,-0.13356,-0.25691,-0.040697,-0.0057204,0.014074,0.15297,0.0067856,0.096614,-0.00083566,0.020408,0.0087686,0.055096,-0.069475,0.062714,-0.041614,-0.0030441,0.05221,-0.030868,-0.099859,-0.043133,-0.059794,-0.011458,-0.12223,-0.0072366,0.061328,0.077222,0.01395,-0.012377,0.052817,-0.0091044,0.087421,0.036791,-0.089411,0.035588,-0.016184,0.032045,0.061138,-0.016654,0.090379,0.030282,0.047787,-0.029046,0.064064,0.033621,0.071104,-0.074428,0.059174,0.00085862,-0.085756,0.021578},{-0.29646,0.030138,-0.058153,0.056823,0.018198,-0.088807,0.052152,0.035448,0.0078446,0.087805,0.013454,-0.031039,-0.03735,0.0045206,-0.059717,-0.056809,0.087864,-0.021494,-0.058954,-0.025822,-0.047881,0.044623,-0.054413,-0.06812,-0.049128,-0.083985,-0.044469,-0.037313,0.092052,0.025477,-0.055086,0.087237,0.029144,0.10691,0.031962,-0.071391,-0.0013954,-0.047117,0.034064,-0.079246,-0.0115,-0.091419,0.082694,-0.03064,0.061371,0.041945,0.057035,0.0822,-0.043933,0.035644,-0.059633,-0.092251,-0.032439,0.095801,0.095358,0.24682,0.037863,0.13299,0.0050954,0.090391,-0.065909,0.049655,-0.059223,-0.031986,0.062693,0.11389,0.10895,0.15784,-0.083446,-0.12657,-0.090993,-0.17348,-0.0074943,0.017852,0.34494,0.40699,0.34124,0.19656,-0.025458,-0.055458,0.067035,0.062345,-0.046738,0.024804,0.086035,0.47935,0.30916,-0.0052462,-0.26803,-0.26089,-0.26151,-0.21728,-0.2287,-0.25093,-0.20849,0.18985,0.34903,0.25064,0.11749,0.035559,0.0083344,-0.0015676,-0.085201,-0.060708,0.29846,0.49952,-0.0167,-0.56925,-0.60664,-0.4378,-0.38733,-0.41481,-0.52974,-0.24677,-0.069525,0.076345,0.342,0.16362,-0.12665,-0.10202,-0.082818,0.031668,-0.032163,0.11385,0.16625,0.39365,-0.07008,-0.31316,-0.48104,-0.51201,-0.16552,0.086324,-0.11586,0.040374,0.53242,0.40021,0.2824,0.28242,-0.19512,-0.292,-0.051271,-0.064938,0.0093201,0.23671,0.20904,0.23605,-0.025663,-0.37376,-0.60654,-0.49058,-0.2654,-0.19275,-0.32473,-0.098381,0.48993,0.52603,0.54273,0.17203,-0.054238,-0.3328,-0.03801,0.016267,-0.029932,0.08929,0.14974,0.20204,0.06525,-0.34959,-0.80446,-0.55371,-0.38497,-0.35099,-0.41345,-0.095959,0.10783,0.39579,0.38203,-0.36022,-0.22484,-0.29403,0.0011183,0.085106,0.015119,0.22533,0.25166,0.090387,0.044013,-0.27674,-0.5058,-0.15495,0.13459,0.23504,0.38062,0.22986,0.23504,0.4274,0.078931,-0.51764,-0.2051,-0.078,-0.016305,-0.055324,0.16387,0.40545,-0.0042368,-0.1787,0.15512,-0.036306,0.18025,0.30692,0.65911,0.73587,0.53686,0.10165,0.096934,0.57148,0.36632,-0.3552,-0.28976,-0.16146,0.059196,-0.06729,0.14881,0.33254,0.15728,-0.32771,-0.2526,-0.15721,-0.1998,-0.025378,0.29052,0.20017,-0.11603,-0.12052,0.11745,0.47188,0.36122,-0.15962,-0.29931,-0.10999,-0.054643,0.081586,0.16117,0.42942,0.22354,-0.26606,-0.50619,-0.83189,-0.67463,0.0064984,0.26005,-0.039556,-0.062505,-0.028516,0.33872,0.39491,0.35567,-0.17104,-0.1471,0.061972,-0.047681,0.078976,0.15178,0.44405,0.419,0.18452,-0.58962,-0.90452,-0.51716,0.14563,-0.0561,-0.18301,-0.024822,0.3407,0.40473,0.51316,0.44187,-0.0016723,0.041586,0.083931,0.052126,0.047739,-0.02262,0.28143,0.33615,-0.20363,-0.46862,-0.5478,-0.17661,-0.036894,0.052963,0.075276,0.029702,0.32587,0.24146,0.43034,0.26101,0.0011339,0.073522,0.049129,0.07148,-0.077847,0.1092,0.27049,0.039984,-0.45006,-0.38705,-0.50462,-0.24818,-0.029543,-0.0095119,0.20973,0.3077,0.065111,0.043044,0.18634,-0.085548,-0.18698,-0.17248,-0.026155,-0.05135,0.076359,0.0043652,0.094819,-0.025739,-0.21606,-0.29177,-0.36314,-0.27466,-0.03483,0.095645,0.15427,0.15523,-0.032352,0.095659,0.19731,-0.065157,-0.16536,-0.032935,-0.076796,0.08464,0.024954,0.0028684,0.005241,-0.06726,-0.054028,-0.21198,-0.36155,-0.050214,0.13641,0.2072,0.24077,0.10139,0.032089,0.13163,0.20859,0.11061,-0.089611,0.027403,0.045673,-0.058047,-0.051007,0.072303,0.0494,-0.046137,-0.0050934,0.020277,-0.033381,0.032722,0.044526,-0.0013216,0.074657,-0.10552,-0.014459,-0.078753,0.088443,0.0012518,0.056379,-0.042024,-0.013041,0.091047,0.044132,-0.049076,-0.071979,0.0066396,0.113,0.041478,0.068822,-0.062013,-0.089078,-0.072435,0.0041704,0.010271,0.05227,0.054146,0.016873,0.0099695,0.011622,-0.017671,0.040844,-0.014067},{0.28923,0.079025,-0.0047764,-0.080374,-0.059326,0.0096227,0.023293,-0.024493,-0.074591,0.0089446,0.084853,-0.045119,-0.064574,0.048456,0.011396,0.039107,-0.036234,0.03895,0.080034,-0.075321,0.032396,0.070409,0.081606,0.060191,-0.080188,-0.067387,-0.055231,-0.039098,-0.058699,-0.017777,0.088781,-0.025995,0.055268,0.056754,0.04282,0.016886,0.064112,0.078535,0.022384,-0.059892,-0.047938,-0.078718,0.062998,-0.017275,-0.078632,-0.078736,0.031831,0.062609,0.079817,0.16687,0.010084,0.046866,0.068013,-0.018613,-0.075772,-0.020706,0.019297,-0.070612,-0.063817,0.069319,-0.075119,-0.042986,0.058617,-0.0043227,-0.038861,-0.0046035,0.11111,-0.03229,0.08886,0.035999,0.071945,0.10791,0.15463,0.029891,-0.15155,-0.1883,0.035494,0.040892,-0.03188,0.068434,-0.080698,0.012446,-0.064763,-0.061042,0.082365,0.044333,0.19174,0.086288,-0.062826,-0.051321,0.1978,0.42008,0.27425,0.0086208,0.010487,-0.083211,-0.10446,-0.04788,0.11839,0.098399,0.015172,-0.027171,-0.03613,0.085679,0.02239,0.18326,0.12958,-0.14378,-0.065418,0.035542,0.045499,0.30939,0.7171,0.30132,0.031233,-0.28051,-0.27203,0.045183,0.14511,0.063547,-0.085555,0.061555,0.027232,0.0062088,0.080094,0.097348,0.027624,-0.15314,0.044078,0.081535,-0.068276,0.20383,0.58317,0.46227,-0.033822,-0.16343,-0.046461,-0.0138,-0.050111,0.11669,0.031295,0.010437,0.063987,0.060494,0.085805,0.011533,0.012071,-0.01662,-0.11454,-0.10948,0.019325,-0.044105,-0.017106,0.21603,-0.067791,-0.038365,0.070198,-0.19797,-0.10168,0.13168,0.06997,0.019813,-0.0011473,0.04004,0.10554,-0.022246,0.0031061,-0.16433,-0.10055,-0.14084,-0.2519,-0.40933,-0.22215,0.083272,0.1403,0.13357,0.21241,-0.12461,0.07143,0.078812,0.088279,0.077431,-0.0018614,-0.097249,0.094585,-0.19383,-0.05497,-0.11718,-0.1468,-0.38177,-0.82118,-0.6785,-0.46941,0.11104,0.086152,0.26045,0.085751,-0.30962,-0.25294,0.051339,0.092549,-0.047007,0.072896,-0.034588,0.036943,-0.10565,-0.21645,-0.22754,-0.24814,-0.63878,-0.81118,-0.46706,-0.06721,0.36587,0.16243,0.12189,-0.26515,-0.28335,-0.18456,0.1284,0.014561,0.074329,0.015866,0.13816,-0.15248,-0.21316,-0.061469,0.018856,0.16838,0.058291,-0.27112,-0.13366,0.22795,0.2183,0.039972,0.12257,-0.2019,-0.30134,-0.20048,0.14258,0.051695,-0.085997,0.04816,0.20678,-0.058652,-0.1938,0.15627,0.17681,0.45208,0.35398,0.15196,0.029017,0.29739,0.19959,0.1433,0.072499,-0.15239,-0.52256,-0.25873,0.11029,0.093959,-0.074573,0.037997,0.1853,-0.057956,-0.26973,-0.31677,-0.023644,0.2186,0.035382,0.042155,0.31912,0.3465,0.30006,0.16191,0.041836,-0.24179,-0.45268,-0.17225,0.073386,-0.068815,-0.08017,0.093088,0.03623,0.099798,-0.069677,-0.27632,-0.16854,-0.0027136,0.11548,0.12156,0.5573,0.47091,0.24289,0.055844,-0.10441,-0.21107,-0.30626,-0.22052,0.0049318,0.0057881,0.024488,-0.037128,0.096033,-0.030751,0.10541,-0.0093389,-0.16153,0.0057268,0.23549,0.14279,0.44163,0.44193,0.12941,-0.031911,-0.12708,-0.086564,-0.25386,-0.022917,0.025383,0.0096457,0.081993,-0.063917,-0.055438,0.0088036,0.0096737,-0.16037,-0.30801,-0.012422,0.11168,0.34284,0.22947,0.31526,0.12276,-0.16137,-0.14867,-0.13376,-0.07491,-0.059446,-0.051817,0.040464,-0.047406,0.020094,-0.0884,-0.00049209,0.042408,-0.043032,-0.39221,-0.15454,-0.071168,0.035349,0.12842,0.017514,0.10695,-0.032347,-0.093679,-0.012394,0.011058,-0.0505,0.009609,-0.050689,0.033552,-0.014934,-0.0015766,-0.015915,-0.064973,-0.092334,-0.16334,-0.011481,-0.0591,0.044282,-0.011162,-0.04317,0.038642,-0.047496,0.080985,0.063993,0.036326,0.02427,0.03381,-0.075322,-0.042852,0.08502,-0.0074296,0.060455,-0.051116,-0.014542,0.02415,0.05387,0.026616,0.011049,0.0084869,0.039645,0.025176,0.062223,0.075118,0.016995,-0.080034,-0.0070817,-0.080556,-0.044672},{-0.79283,0.068319,0.013513,-0.057885,0.047749,0.043141,0.0054976,0.085092,0.028138,0.027079,-0.087522,0.076701,-0.062425,0.018677,0.0084456,-0.075859,-0.084044,-0.06561,0.017143,0.029794,0.07029,-0.011472,0.0018998,-0.014911,0.0066053,0.059941,0.090646,0.012196,-0.087633,0.015237,0.044196,0.066272,0.0121,0.071233,-0.037306,-0.029269,-0.096859,-0.054045,-0.057676,0.024341,0.060467,-0.08577,0.027457,-0.045481,0.056156,-0.10899,-0.058766,-0.055303,-0.21706,-0.072339,-0.037193,0.043735,-0.023882,-0.0076584,-0.19965,-0.15512,-0.098788,-0.00080209,0.025307,0.052052,0.035406,-0.036764,0.064128,-0.028853,0.00036765,-0.04948,-0.1256,-0.0048865,0.017712,0.28395,0.023544,-0.082469,0.055946,-0.206,-0.33789,-0.29688,-0.26129,-0.18601,-0.11513,-0.049692,-0.034682,0.046228,0.018095,-0.079696,-0.0299,-0.17754,-0.18833,-0.073799,0.18389,0.31051,0.091642,-0.044588,0.12059,-0.10243,-0.20978,-0.095869,-0.13364,-0.25321,-0.3578,-0.044906,-0.031468,0.048064,-0.029876,0.048973,0.10569,0.0093433,-0.10335,-0.26145,-0.067634,-0.10163,0.013086,0.42436,0.24211,0.24852,-0.021161,-0.38908,-0.38703,-0.28643,-0.44268,-0.22753,0.0096591,0.042152,-0.0053269,0.021649,0.21383,-0.1134,-0.19515,-0.26993,-0.16151,0.063856,0.22769,0.16612,0.39319,0.79018,0.58671,-0.36902,-0.39443,-0.42264,-0.46648,-0.20339,0.085651,-0.024403,0.089344,0.066325,0.085114,-0.028808,-0.13786,0.12629,0.37179,0.29577,0.29305,0.19562,0.66583,1.2748,0.75647,-0.14898,-0.25915,-0.37034,-0.27712,-0.35786,-0.088716,-0.089541,-0.079208,0.14476,0.32171,0.36924,0.085878,0.15957,0.2817,-0.08168,0.23882,0.55983,0.67107,0.64944,0.71596,0.31979,-0.096521,-0.22425,-0.4081,-0.094927,0.020765,-0.089424,0.10657,0.071522,0.47773,0.53875,-0.22316,0.0048775,-0.18476,-0.40166,-0.0089984,0.41269,0.33085,0.26669,0.30191,0.34839,0.18605,-0.071516,-0.32954,-0.063189,0.061381,0.014091,0.013157,0.025077,0.41642,0.16222,-0.68573,-0.41505,-0.7979,-0.68611,-0.1399,0.065651,0.080044,0.095834,0.078083,0.12643,-0.17189,-0.38396,-0.23484,-0.19303,0.031151,0.010323,0.11021,0.081273,0.27243,-0.0040077,-0.60407,-0.68788,-0.71613,-0.28505,0.058397,0.3557,0.53735,0.12043,0.48144,0.080642,-0.35241,-0.35871,0.09882,-0.14062,-0.016352,-0.041101,0.020968,0.10201,0.26547,0.28972,-0.38955,-0.57091,-0.35221,-0.25235,0.042689,0.44083,0.11761,0.10103,0.22829,0.10488,0.41142,0.18641,0.26897,-0.10088,-0.071852,-0.032884,0.016223,0.048704,-0.11477,-0.026628,-0.5265,-0.31486,-0.19646,-0.07525,0.18027,-0.11379,-0.42775,-0.58086,-0.56468,0.011551,0.40631,0.28963,0.2898,-0.059955,0.01124,-0.093217,0.029014,0.21117,-0.13156,-0.23863,-0.41025,-0.11089,0.22605,0.44482,0.35119,-0.12985,-0.48647,-0.59589,-0.32014,0.32769,0.16897,0.11449,0.29859,-0.065499,-0.061371,0.056084,0.01046,0.14175,0.0044166,-0.24016,-0.16954,-0.20579,0.19716,0.40812,0.084321,-0.20781,-0.23808,-0.090143,0.1735,0.27977,0.079055,0.23817,0.20638,-0.056318,0.021446,0.069082,-0.080153,0.047263,-0.093419,-0.020838,-0.28088,-0.14012,0.049843,0.098841,-0.061626,-0.27596,-0.31455,0.059841,0.31041,0.22496,0.156,0.15977,0.0031445,0.099423,-0.057744,-0.004849,-0.0466,0.054526,-0.12529,-0.081736,-0.18205,-0.15336,-0.039854,0.11191,-0.068659,-0.20025,-0.10802,0.039868,0.043917,0.039508,0.05585,-0.02133,-0.020116,-0.049785,-0.078188,-0.077266,0.021473,0.055452,0.080772,-0.015349,-0.067796,-0.25264,-0.044907,-0.058925,-0.042562,0.089177,0.053597,-0.0047739,-0.019134,-0.035706,-0.0023217,0.018975,0.064978,0.0047257,0.086761,-0.045759,0.037495,0.055009,0.0074372,-0.030631,0.053431,-0.059001,-0.037712,0.06222,-0.058627,0.01859,0.06207,0.089956,-0.00014264,0.090544,0.019503,-0.02375,0.019263,0.045977,0.024358},{0.37852,-0.010718,-0.050101,0.059154,-0.087122,0.014634,0.081152,-0.041706,0.056259,-0.069024,0.001467,0.014944,-0.038712,0.049982,-0.082702,-0.0063515,0.017169,-0.050217,-0.040707,0.02367,-0.034879,0.033161,0.024036,-0.019103,-0.079189,0.064607,-0.024697,-0.023891,0.0066164,0.075516,-0.030806,-0.046528,-0.084223,0.060106,-0.067134,0.003275,-0.073378,-0.0090639,0.010654,0.082721,0.073354,0.055878,0.0083921,0.0021433,0.034365,-0.024896,-0.12705,-0.15358,-0.19098,-0.20427,-0.083252,-0.12407,0.00059045,-0.071843,0.10668,0.023163,0.096293,0.068367,-0.022473,-0.0049105,0.0016941,-0.039776,0.012561,0.015435,0.015952,-0.04201,-0.23531,-0.32928,-0.27121,-0.27457,-0.069599,-0.17682,-0.14075,-0.20409,0.058629,0.17576,0.26298,0.25291,0.1689,0.056936,-0.078085,0.056512,-0.033298,-0.084193,-0.11756,-0.040603,-0.14526,-0.36018,-0.042792,-0.0010167,0.094746,0.013738,-0.25544,0.019789,0.17038,0.058833,0.057861,0.11414,-0.0039631,-0.057104,0.051152,-0.067983,0.042631,-0.083781,-0.093828,-0.10539,-0.47494,-0.50432,-0.096628,0.1392,0.25654,-0.17612,-0.31883,0.041096,0.59616,0.41555,0.10362,-0.10145,-0.064732,-0.04633,0.0088105,-0.0062421,-0.077918,-0.045225,-0.28189,-0.14321,-0.38106,-0.35141,0.0049306,0.11977,0.30692,0.50917,-0.11026,-0.038648,0.42894,0.5049,0.21919,0.30133,0.032671,-0.10132,-0.01045,-0.0030117,0.12488,0.009404,-0.06771,0.037961,-0.3563,-0.33085,-0.047499,0.34868,0.66135,1.0406,0.13603,-0.31728,0.31885,0.62454,0.36512,0.37281,0.29614,-0.1068,0.010034,0.022351,-0.025148,-0.048538,0.14038,0.13381,-0.28502,-0.013157,0.10345,0.37636,0.38373,0.41786,-0.62422,-0.80096,0.03167,0.61172,0.26957,0.29703,0.14767,0.038163,0.019247,0.078848,0.10491,0.21517,0.18178,0.14472,-0.12806,-0.015747,0.28186,0.32005,0.55654,0.12914,-0.51502,-0.70849,-0.16342,0.46426,0.24949,0.19779,0.068523,-0.053968,-0.048636,0.0042946,0.2636,0.42608,0.14728,-0.042419,0.12369,0.4067,0.56265,0.42752,0.33415,0.044554,-0.75281,-0.91076,-0.19494,0.33154,0.56004,0.29459,-0.10689,-0.066077,-0.026622,-0.01219,0.14023,0.45431,0.21995,-0.23513,0.25333,0.28748,-0.092672,-0.38401,-0.51626,-0.46659,-0.99695,-0.97567,-0.33775,0.18702,0.38244,0.026714,-0.10227,-0.079427,-0.058138,0.0080552,0.24504,0.45571,0.19906,0.1113,0.34711,0.19067,-0.44813,-0.73611,-0.58385,-0.26081,-0.65948,-0.83249,-0.051554,0.47999,-0.028737,-0.28806,-0.068777,-0.0057221,0.02627,-0.084548,0.077586,0.2121,0.13732,0.40267,0.35471,-0.04594,-0.59828,-1.0572,-0.5795,-0.48311,-0.56797,-0.066973,0.48026,0.24512,-0.03395,-0.19366,-0.038147,-0.043857,-0.0672,-0.053175,0.058415,0.042365,0.095671,0.10156,0.18595,-0.26189,-0.94291,-0.96173,-0.508,-0.021373,0.0038927,0.30525,0.48692,-0.00059106,-0.2632,-0.13946,0.033326,0.041486,-0.037393,-0.091943,0.099384,-0.036097,0.12251,-0.16682,0.063192,-0.050359,-0.43369,-0.25572,0.095465,0.54285,0.45654,0.46089,0.069144,-0.077925,-0.23695,-0.033845,-0.028699,0.016992,-0.12918,-0.03398,-0.016125,0.10275,0.053506,-0.0047987,0.2267,0.32547,-0.1018,0.020099,0.32168,0.5256,0.29338,0.09478,0.049174,0.082984,0.0046061,-0.093558,-0.024511,-0.0012431,-0.030958,0.019728,-0.029545,-0.01659,0.10545,0.064835,0.36702,0.47608,0.14394,0.02594,0.065713,0.13076,-0.042113,-0.058236,-0.079769,-0.075682,-0.021661,-0.066884,0.032168,0.013453,-0.0075879,-0.032851,0.064555,0.089808,-0.015826,0.068587,0.046836,0.2644,0.073403,-0.090295,0.093056,-0.070125,-0.12762,-0.15341,-0.035284,0.004392,-0.015359,-0.033433,-0.075737,-0.059798,-0.077358,0.052245,-0.058254,0.087913,0.078928,-0.040047,0.065598,-0.0091568,0.017807,0.092892,0.033907,-0.00017261,-0.0015207,0.060685,0.068958,-0.045401,0.040883,0.020562,-0.050844,-0.011615,-0.075446},{-0.61771,0.055735,0.054524,-0.043768,-0.027264,-0.045843,0.040039,0.061879,0.067478,-0.038724,-0.055906,0.01861,-0.065876,0.090204,0.055697,-0.0068873,-0.091376,-0.068488,0.043589,0.072278,0.078722,0.079611,0.018697,-0.0051464,-0.061153,-0.038612,-0.053759,-0.079738,-0.050219,0.048861,-0.086347,0.078893,0.024543,-0.075651,-0.089227,-0.075703,0.077437,0.080239,0.034394,0.078648,0.022166,0.0068409,0.046931,-0.031475,-0.020556,-0.043598,0.0043059,0.048958,0.07321,0.16325,0.032806,-0.044128,0.0013831,0.17199,0.19164,-0.013465,0.096775,0.08261,0.0071885,0.056059,0.075232,-0.025488,0.087708,0.080733,0.070354,0.12012,0.19815,0.24504,0.10458,-0.020471,-0.28974,-0.27395,-0.053548,0.21999,0.4304,0.47691,0.15192,0.08948,-0.0409,0.070389,-0.070126,0.016706,-0.0070723,0.07904,0.12097,0.11345,0.16242,0.22869,-0.082199,-0.4227,-0.78579,-0.63751,-0.39464,0.10263,0.41906,0.45779,0.40277,0.20352,0.017955,0.03282,-0.041124,-0.005544,0.031607,-0.0041752,0.14086,0.15373,0.07962,0.017289,-0.38809,-0.57557,-0.66548,-0.5249,-0.20431,-0.062191,0.26132,0.17515,0.24696,0.18944,-0.0035719,-0.0086442,-0.051476,-0.064826,-0.13435,-0.038987,0.28694,0.27265,-0.11237,-0.21932,-0.53427,-0.63239,-0.50545,-0.51026,-0.43754,-0.44067,0.18836,0.15084,0.15575,-0.14564,-0.13632,0.013388,0.1023,-0.046522,-0.1359,0.040087,0.32049,0.35696,0.077174,0.182,-0.41925,-0.74813,-0.93858,-0.69234,-0.51885,-0.57747,-0.15998,0.03886,-0.089703,-0.10438,0.047137,0.055995,-0.053929,-0.072856,0.040458,0.12029,0.45617,0.39241,0.47702,0.42599,-0.48609,-0.98421,-0.84417,-0.27701,-0.049401,-0.34573,-0.37018,-0.08645,-0.10037,-0.060396,0.038602,0.23172,-0.036969,0.037283,-0.033529,0.21256,0.77464,0.62026,0.79331,0.37737,-0.36937,-0.75966,-0.30632,0.46905,0.64629,0.19507,0.030721,-0.095294,-0.23918,0.02602,0.091388,0.22405,0.055044,-0.0092217,-0.092285,0.13562,0.55457,0.50809,0.75673,0.61361,0.30545,0.20994,0.55934,0.39668,0.28447,0.3837,-0.066636,-0.42311,-0.43753,-0.15729,0.11027,0.12308,-0.011966,0.025147,0.024045,0.067516,0.29932,0.38486,0.49946,0.55495,0.73907,0.38567,0.26746,0.18551,0.13733,0.074123,-0.23641,-0.67852,-0.31367,-0.064907,0.020332,0.1398,0.12584,0.048067,-0.1309,-0.20371,-0.15538,-0.12364,0.17528,0.71123,0.63686,0.13136,0.16837,0.27741,0.22308,-0.039133,-0.37022,-0.40758,-0.0028404,0.113,0.12502,0.10346,0.12838,-0.082697,-0.029302,-0.34144,-0.35558,-0.079621,0.40402,0.63565,0.60917,0.52983,0.36322,0.056568,0.0068301,-0.22622,-0.4262,-0.097785,-0.065453,-0.079731,0.033123,0.21446,0.040844,-0.016211,-0.014993,-0.33023,-0.49108,-0.057274,0.17663,0.4956,0.50806,0.62881,-0.056195,-0.51539,-0.5258,-0.38116,-0.18405,0.26091,0.14421,-0.063049,0.10592,0.1251,-0.00044971,0.053452,-0.064068,-0.14686,-0.34216,-0.33897,-0.18095,0.26359,0.48414,0.094975,-0.34252,-0.62632,-0.40397,0.006311,0.28452,0.41321,0.26129,0.04317,-0.067279,0.0048835,-0.052113,0.082443,0.0051341,-0.09409,-0.30683,-0.42925,-0.19954,0.12123,0.11938,-0.21199,-0.4532,-0.64965,-0.4951,-0.054826,0.35583,0.22585,0.17375,-0.077227,0.03075,-0.081569,0.031564,-0.057364,-0.017864,-0.087779,0.019812,-0.29057,-0.35932,-0.16096,-0.16492,-0.27141,-0.43388,-0.31361,-0.032168,0.25369,0.42915,0.26372,0.12549,-0.01916,-0.062469,-0.06503,-0.034003,0.034405,0.025288,-0.042546,-0.10452,-0.12475,-0.072559,-0.20378,-0.10984,0.0306,0.0509,0.021894,-0.079936,0.051912,0.043013,0.03803,0.0019381,0.074499,0.046129,-0.079106,0.064915,0.062655,0.087662,0.0061645,-0.066762,-0.020631,-0.012169,0.0041271,0.004682,0.052078,-0.020799,-0.025306,0.097054,0.049961,0.088202,-0.030858,-0.071629,-0.068085,0.0032152,-0.025882,0.062817},{0.39398,0.060716,-0.0020062,-0.090819,-0.077711,-0.039412,0.036512,0.039766,-0.06397,0.087127,-0.026748,0.047058,-0.073467,-0.017265,-0.069403,0.033923,0.044943,0.057098,-0.058455,-0.027189,0.013395,-0.021682,0.078233,0.049067,0.066446,0.0053884,0.048136,-0.035776,0.089718,0.057283,0.086282,-0.063455,0.075225,0.011359,0.088111,-0.0079362,0.061647,0.040866,0.035446,-0.07349,0.060305,-0.054484,-0.089448,0.026415,0.090542,0.079985,-0.028519,0.085641,-0.020574,-0.011658,-0.068372,-0.045072,0.060385,-0.036496,0.11216,-0.048854,0.033563,0.054499,0.043644,-0.021011,0.08852,0.074584,0.038081,0.035715,0.0048782,0.067723,0.10198,0.092984,0.17582,0.045945,-0.020183,-0.058224,-0.2074,-0.24243,-0.2074,-0.048232,0.0054087,0.068807,-0.023413,-0.084223,0.046645,-0.059086,0.045712,0.077833,0.11896,0.18612,0.2308,0.30604,0.12481,-0.14111,-0.46691,-0.51155,-0.61995,-0.49692,-0.64465,-0.48,-0.094793,0.024261,0.11163,-0.032345,-0.050841,-0.015412,0.082233,0.042176,0.25018,0.31179,0.28231,0.30124,0.055607,-0.50952,-0.83694,-1.0172,-0.71923,-0.45182,-0.63342,-0.52626,-0.1256,0.087297,0.07491,0.057939,0.056167,-0.0038187,-0.065385,0.02916,0.13135,0.21826,0.23594,0.25615,-0.21351,-0.84249,-1.2637,-1.1387,-0.49872,-0.2578,-0.14688,-0.3843,-0.36231,-0.22576,-0.15176,0.02282,0.053819,-0.018082,0.0057063,0.16123,0.21808,0.27359,0.24957,0.14333,-0.41926,-0.9503,-1.5333,-1.0452,-0.39535,0.21404,0.51781,0.24791,-0.38502,-0.6217,-0.27337,0.16221,0.013774,0.086645,0.050718,0.072945,0.3233,0.13504,-0.048538,0.20557,-0.24302,-0.89439,-1.3398,-1.0387,-0.014852,0.71706,0.95012,0.61292,-0.16274,-0.92573,-0.42581,0.20715,0.15229,0.057303,0.041775,0.2657,0.39266,-0.16316,-0.25287,0.12215,-0.2086,-0.60484,-0.72201,-0.0721,0.78533,1.0218,0.8681,0.57961,-0.38321,-0.89088,-0.28804,0.17095,0.13626,0.034048,0.14398,0.19864,0.28659,-0.52564,-0.39029,0.25198,0.43567,0.17239,0.15572,0.68845,0.8846,0.75034,0.61382,0.37177,-0.2363,-0.49758,-0.18756,0.15509,0.070715,-0.059876,0.056745,0.31533,0.23708,-0.55075,-0.4665,0.25473,0.52118,0.33309,0.40895,0.41831,0.15162,0.003148,0.07856,0.11014,-0.16769,-0.21783,-0.10937,0.12165,0.071968,-0.04664,0.12418,0.32519,0.022035,-0.7528,-0.37742,0.078785,0.27873,0.21225,0.29997,0.17135,0.1817,-0.22771,-0.029757,-0.045844,-0.20029,-0.13944,-0.18663,0.11845,0.022481,-0.056028,0.08236,0.20436,-0.012429,-0.61452,-0.4778,-0.31524,-0.19956,-0.081168,0.017511,-0.025064,-0.11803,-0.23979,-0.0036535,-0.040976,-0.053051,-0.071599,-0.19224,-0.069035,-0.028857,-0.066214,-0.060073,0.11319,-0.1142,-0.42285,-0.67607,-0.76511,-0.82747,-0.54554,-0.28818,-0.13079,-0.2035,-0.14538,0.044651,0.13549,0.076095,0.044152,-0.014655,-0.072931,-0.07146,-0.019622,0.051413,0.08272,0.0024733,-0.28939,-0.57737,-0.97181,-0.79625,-0.55721,-0.52345,-0.3603,-0.07293,-0.13661,-0.066372,0.045323,0.0071161,-0.037894,0.02476,-0.072392,-0.07792,-0.00089857,-0.022356,-0.0025586,-0.090544,-0.16328,-0.48595,-0.72723,-0.45179,-0.45974,-0.28374,-0.11482,-0.094527,-0.09717,0.01606,0.006128,0.10195,-0.003636,0.029278,0.061382,0.038117,0.075149,0.040457,0.045465,0.043375,-0.17258,-0.34674,-0.35737,-0.062515,-0.16059,0.04468,-0.068962,-0.065329,0.047584,0.13859,0.066616,0.075786,-0.099017,0.019522,0.037555,-0.012117,-0.048186,-0.0070806,-0.039687,-0.033366,-0.082182,0.0029751,-0.10447,0.041013,0.085627,0.065633,-0.029038,0.072973,0.072922,0.066927,0.054194,-0.07862,-0.030472,0.048914,0.077152,-0.011313,0.049281,0.081129,-0.020507,-0.041742,-0.034293,0.087662,-0.082355,-0.054886,0.023443,0.023019,0.008699,0.0089183,0.036525,0.030799,0.087607,-0.029099,-0.044406,0.080991,-0.0085467,-0.087317},{0.47357,0.00045992,-0.089895,-0.026476,-0.0021079,0.076951,0.086072,-0.077874,0.067618,-0.056927,0.038189,-0.016484,0.023303,0.080962,-0.0041462,0.079654,-0.034197,-0.01453,-0.042653,-0.036958,-0.0064873,-0.015613,-0.073039,0.045347,0.07771,-0.0054198,0.032684,-0.076614,-0.046683,-0.084151,-0.076922,0.066852,0.052213,-0.062783,0.01348,0.061915,-0.039543,0.038032,-0.064427,0.081837,0.043643,0.056969,0.082912,-0.0031771,-0.062947,0.0515,-0.086743,-0.048043,-0.024292,-0.068322,-0.041061,0.072202,0.080938,0.010883,0.029085,0.12477,0.11589,0.037873,0.050076,-0.051243,-0.04006,-0.059684,-0.018847,-0.013774,0.054491,0.019772,0.11358,0.0014996,-0.20416,-0.39798,-0.41793,-0.048428,-0.011059,0.31375,0.41955,0.43349,0.2351,0.14139,0.08153,0.053808,-0.01239,-0.071999,-0.028023,0.032344,0.030756,0.13345,0.19169,-0.0014056,-0.46624,-0.51182,-0.41814,-0.070769,0.15945,0.51161,0.7451,0.56823,0.31164,0.25687,0.056623,-0.11567,-0.086408,-0.001136,-0.050154,-0.084614,0.033488,0.29292,0.028395,-0.084079,-0.45272,-0.5905,-0.35073,0.1181,0.062199,-0.088417,0.44207,0.75809,0.34018,0.13897,-0.029878,-0.12089,-0.066152,-0.076333,-0.05343,0.067784,0.048559,0.084075,0.056743,-0.013859,-0.33822,-0.58605,-0.34831,0.084459,-0.017039,-0.85532,-0.18785,0.77856,0.33731,-0.011603,-0.12485,-0.031573,-0.07951,0.0073044,-0.088895,0.10514,0.022353,0.22483,0.24513,-0.085935,-0.35436,-0.47145,-0.090152,0.3123,0.10048,-0.54333,-0.52314,0.57908,0.53323,0.20982,-0.062741,-0.052711,-0.093403,0.07455,-0.038113,0.091446,0.047266,0.15752,0.49789,0.23231,-0.28106,-0.36088,-0.2194,-0.15398,-0.05767,-0.23001,-0.1544,0.50059,0.49261,0.26594,0.022496,-0.089479,-0.022216,-0.027668,-0.038973,0.12387,0.22257,-0.016932,0.48674,0.34492,-0.40963,-0.55401,-0.44624,-0.29358,-0.17994,-0.50792,-0.15028,0.51817,0.25857,0.15737,0.12388,-0.12128,-0.11564,0.029615,-0.12489,-0.023633,0.13578,0.090118,0.28486,0.27798,-0.13298,-0.73191,-0.69288,-0.53732,-0.252,-0.40939,0.0070201,0.32802,0.17068,0.15577,-0.0059971,-0.17464,-0.031449,0.016563,-0.052587,-0.066044,0.00026246,0.31775,0.21079,0.15713,-0.27491,-0.69029,-1.0082,-0.85742,-0.60411,-0.094544,0.18243,0.34596,0.26747,0.0064399,-0.17516,-0.044183,0.024609,0.081371,-0.051646,0.063838,0.13953,0.29745,0.18263,0.29205,-0.0076497,-0.4696,-0.45392,-0.52664,-0.41497,0.18488,0.54131,0.214,0.12408,0.042232,0.026577,-0.12901,-0.019076,0.070281,-0.065888,0.001159,0.070444,0.40822,-0.091658,0.22076,-0.077246,-0.37737,-0.18443,-0.54036,-0.091333,0.30747,0.22835,0.12352,0.31477,0.26045,0.18763,-0.092386,-0.0086694,0.040281,0.052399,0.079146,0.072959,0.13568,0.12339,-0.016256,-0.3149,-0.64537,-0.53049,-0.3931,-0.15594,-0.015232,-0.074579,0.27162,0.31141,0.20028,0.1385,-0.072329,-0.056684,0.037096,-0.10216,0.0096188,-0.049467,0.079987,0.37389,0.077602,-0.42811,-0.79393,-0.39118,-0.12074,0.15299,0.3426,0.53461,0.32549,0.21458,0.1253,0.017721,-0.011626,0.048889,-0.033581,0.041703,-0.019766,-0.032933,-0.043234,0.31291,0.032172,-0.50012,-0.36629,-0.093732,0.033156,0.21928,0.51144,0.50719,0.24097,-0.019487,0.029681,0.018169,-0.015841,-0.095748,-0.034283,-0.035279,0.011304,0.064829,0.12895,0.39261,0.20625,0.043641,-0.08958,-0.046201,0.107,0.13664,0.2061,0.29748,0.17117,-0.0062748,-0.10444,0.045121,0.033501,-0.028507,0.075673,-0.056832,-0.039562,0.026936,0.16651,0.14728,0.17316,0.033526,0.0036526,-0.030735,-0.026302,0.16946,0.023813,0.051846,-0.00080725,0.031778,0.063382,0.06754,0.068665,0.059792,-0.024574,0.071254,0.071047,-0.084911,0.025003,0.055179,-0.061131,0.02453,-0.078833,-0.080748,0.095789,-0.03304,-0.014021,-0.039783,0.044253,0.0077934,0.029464,0.040288,9.6298e-005,0.032589},{-0.2529,0.042953,-0.072224,0.061487,-0.044873,0.084804,0.077921,-0.06445,-0.07169,-0.080206,-0.042792,-0.085546,0.06928,0.093255,-0.067123,-0.058473,0.08532,0.051397,-0.01006,-0.079463,0.011667,0.035503,0.036178,0.019382,-0.0059044,0.0070121,-0.032256,-0.039939,-0.13944,-0.083798,0.051043,0.075071,-0.082471,-0.11529,-0.04515,-0.048768,0.061534,0.030097,0.082592,-0.042231,-0.0041741,-0.043206,-0.017996,0.01379,0.022486,-0.12347,-0.23769,-0.20589,-0.23667,-0.16962,-0.0015991,-0.040342,-0.029057,-0.12456,-0.17593,-0.14807,-0.078518,-0.14692,-0.083457,-0.083151,-0.055895,0.068814,-0.018368,-0.064941,-0.019329,-0.20342,-0.59988,-0.50923,-0.12148,0.31469,0.40907,0.37959,-0.057659,-0.40324,-0.34705,-0.22242,-0.21114,-0.25609,-0.30313,-0.034474,0.083502,-0.024938,0.02525,-0.04088,-0.1347,-0.79027,-0.80052,-0.56477,-0.034338,0.85953,1.1266,0.80858,0.17085,0.26478,0.38183,0.058911,0.085702,-0.24534,-0.46591,-0.15314,-0.033275,-0.03847,-0.036488,0.05258,-0.35033,-0.89916,-0.44525,-0.21162,0.14938,0.89781,1.0006,0.5753,0.13161,0.22411,0.38299,0.3834,0.093527,-0.34388,-0.46732,-0.2022,0.049703,0.027962,-0.022374,-0.084149,-0.39195,-0.55107,0.27054,0.12487,0.51465,0.78469,0.5721,-0.081536,0.15952,0.19247,0.31484,0.30109,0.0017292,-0.11444,-0.13518,-0.19849,-0.06802,0.062382,0.0061637,-0.061011,-0.44357,-0.18414,0.066676,0.090431,0.85651,0.81788,0.44208,0.065457,0.57691,0.7023,0.46248,0.052125,-0.036497,-0.016798,0.1091,-0.26472,-0.060162,-0.0061035,-0.029028,-0.26021,-0.38792,0.081525,-0.1694,0.049015,0.86036,0.66239,0.80194,0.50271,0.3209,0.33485,0.11302,0.14639,0.0084545,0.39032,-0.11491,-0.29413,-0.10439,0.081829,0.081136,-0.39625,-0.61705,0.09974,-0.30084,-0.28022,0.43122,0.48457,0.6329,0.18385,0.056563,0.023919,-0.13581,-0.24764,0.18519,0.30878,-0.32332,-0.079066,-0.09052,0.068295,0.081168,-0.09552,-0.445,0.19895,-0.043317,-0.51049,-0.73869,-0.25382,0.23762,-0.14421,-0.12341,-0.10623,-0.34557,-0.60397,-0.013351,-0.10113,-0.073898,0.064921,0.073615,-0.00072691,0.04984,-0.086632,-0.24114,-0.023745,0.27212,-0.60386,-1.0987,-0.13831,0.10431,-0.10534,0.089075,-0.053378,-0.33168,-0.33511,-0.10448,-0.29401,0.13454,0.043268,-0.14071,0.07939,-0.011603,-0.055457,0.0038764,0.13145,0.13957,-0.17449,-0.50188,-0.29745,-0.0648,0.40279,-0.080409,-0.071959,-0.22195,-0.19567,-0.064051,-0.0074603,0.18555,-0.01384,-0.073146,-0.023798,0.11141,0.087666,0.18216,0.019815,-0.29443,-0.42038,-0.31434,-0.2769,0.2554,0.10263,-0.47284,-0.58939,0.011374,-0.01179,0.020253,-0.083996,0.27037,0.02219,0.055652,0.019853,0.05447,0.16282,0.41876,0.18712,-0.45564,-0.51383,-0.34185,0.065451,0.15238,-0.29602,-0.54619,-0.057127,0.18519,-0.24657,-0.083884,0.16046,0.40992,0.069156,-0.10254,-0.0772,-0.086253,0.10968,0.62543,0.46629,-0.019013,-0.16894,-0.24513,0.2359,0.30292,-0.15963,-0.49131,-0.47347,-0.4014,-0.35307,-0.21819,0.24848,0.16761,0.068828,-0.003171,0.051062,-0.085373,0.0086674,0.1821,0.47007,0.63792,0.41853,0.10841,0.13534,0.3402,0.142,-0.17071,-0.39561,-0.046204,-0.049538,0.073875,0.02634,-0.0011314,0.050691,0.056085,0.082326,0.017959,-0.086094,-0.024994,0.40549,0.6377,0.60669,0.269,0.18153,0.10468,0.076835,-0.19014,-0.19352,-0.21865,-0.070227,0.038494,-0.083926,0.0063288,0.058885,-0.011629,-0.064072,-0.036003,0.083149,-0.0069428,0.11007,0.19317,0.13897,-0.05424,-0.10572,0.052056,-0.11482,-0.11613,-0.057902,-0.1257,-0.041452,-0.00013835,-0.033643,0.044471,-0.00047096,-0.041514,0.0029103,-0.063378,0.023872,-0.025097,-0.0059991,-0.052208,0.025408,0.080054,0.070297,0.044268,-0.08222,0.043859,-0.014509,0.080025,0.0597,0.020067,0.018663,-0.017957,0.068283,-0.071425},{0.86611,-0.086655,0.031617,0.085376,-0.023737,-0.073277,-0.0020996,0.046504,0.0062775,-0.079101,-0.057559,-0.079118,0.035858,-0.040385,-0.0054554,-0.089592,-0.082018,0.078418,0.07328,-0.018347,-0.030277,0.049941,-0.059721,-0.071945,-0.038962,-0.020992,-0.053663,-0.032722,0.03579,0.08705,-0.060141,0.014687,-0.060101,-0.059145,0.0050842,-0.0084435,0.04721,0.064016,0.0031611,0.034724,-0.010086,-0.0016323,0.089287,-0.034304,0.0038391,-0.051537,-0.1238,0.03497,0.26277,0.097218,0.13302,0.0019351,0.007841,-0.16271,-0.21981,-0.064531,-0.06913,0.042757,0.019067,-0.011288,0.0030592,-0.010148,0.0055062,-0.090294,-0.019409,-0.023671,-0.096955,-0.15176,0.16791,0.15392,0.21243,0.085654,0.13999,-0.027185,-0.30955,-0.52304,-0.21021,-0.039075,-0.080771,-0.0034838,-0.075001,-0.053739,-0.074871,0.038505,-0.17497,-0.26866,-0.2702,-0.072099,0.14021,0.6612,0.51735,0.13909,0.18169,0.26176,0.023829,-0.51501,-0.44201,-0.08484,0.028166,0.053149,-0.043241,0.069908,-0.019661,0.07855,-0.14519,-0.3379,-0.21443,-0.26575,0.19215,0.60449,0.4059,-0.11784,-0.22805,0.11159,0.33769,-0.081446,-0.3743,-0.14197,0.029927,0.17775,0.043218,-0.054065,-0.01225,-0.093988,-0.16082,-0.4097,-0.41987,-0.001017,0.3392,0.24405,0.19525,0.033346,-0.26931,-0.37337,-0.18864,-0.1384,0.054786,-0.1082,-0.25328,0.12386,0.091424,-0.011926,0.00042495,-0.14113,-0.30962,-0.51528,-0.25018,-0.0096895,0.32532,0.36267,0.35341,0.54561,-0.059331,-0.30513,-0.13447,0.14214,0.043654,-0.091426,-0.13852,0.23064,0.031533,0.051198,0.079372,-0.1554,-0.40487,-0.49476,0.0026895,0.039451,0.3592,0.18839,-0.28453,-0.42232,-0.48123,-0.39652,-0.29859,-0.081335,0.04254,0.026289,-0.027047,0.35314,0.023362,-0.067659,0.050111,-0.094073,-0.20411,-0.072787,0.49812,0.11253,0.21308,-0.077059,-0.37202,-0.3787,-0.75077,-0.71103,-0.20805,-0.21283,-0.10866,0.060081,-0.10751,0.27544,-0.065602,-0.052482,-0.094392,-0.12598,-0.39109,0.074148,0.80526,0.50667,0.66825,0.034382,-0.37676,-0.33636,-0.80839,-0.23269,-0.13133,-0.60345,-0.1489,0.045129,-0.051529,0.25908,-0.022078,0.048114,-0.0054789,-0.066822,-0.54154,0.014778,0.74197,0.15554,0.14425,-0.34341,-0.73442,-0.47603,-0.62712,-0.1001,-0.49478,-0.64737,-0.24446,-0.072071,0.33391,0.51633,0.056052,0.056931,0.022769,-0.21143,-0.62581,-0.0090917,0.64001,0.5766,0.60648,-0.080242,-0.51943,-0.094657,0.18255,0.083183,-0.20794,-0.36299,-0.42503,-0.31638,0.35379,0.52611,-0.037499,0.048793,0.049504,-0.18059,-0.31592,0.048288,0.34839,0.67454,0.68637,0.030906,-0.13401,0.018944,-0.215,-0.34135,-0.37158,-0.4243,-0.60957,-0.30475,0.16552,0.20288,-0.05358,-0.078092,0.017624,-0.30291,-0.31774,-0.009327,0.3482,0.15623,0.10246,-0.010068,-0.22788,-0.26864,-0.37042,-0.18875,-0.30952,-0.38306,-0.15915,-0.023343,0.099026,0.12803,0.10392,-0.033623,0.0004612,-0.12453,-0.23471,0.0036538,0.11712,0.22304,0.019804,0.13609,-0.03686,0.048419,-0.1015,-0.077969,-0.24336,-0.38631,-0.18072,-0.15012,0.075999,0.047001,-0.02429,0.046106,0.029541,-0.077027,-0.10646,-0.052353,0.05188,0.16969,-0.033347,0.10429,0.26374,0.23191,-0.011843,-0.1236,-0.23776,-0.143,-0.17229,-0.093412,0.07564,0.087365,0.012486,0.074218,0.022859,0.075905,0.1369,0.16257,0.26556,0.40362,0.095934,-0.0054884,-0.097946,0.016003,0.022208,-0.21719,-0.093631,-0.10336,-0.12281,0.05854,-0.049733,-0.053088,0.074565,-0.020193,0.0085718,-0.033841,0.038863,-0.0028735,0.0202,0.13314,0.093479,0.029906,0.05427,-0.0066098,-0.043455,0.05764,0.0071963,-0.087983,0.071396,-0.077946,0.055378,-0.082951,-0.038548,-0.0097564,-0.0082745,0.021441,-0.056839,0.018606,0.033684,0.054922,-0.073001,-0.0026041,-0.086254,-0.041586,-0.068064,-0.003394,-0.01965,0.012197,-0.046171,-0.062956,0.082697,-0.064839,-0.036698},{-0.040885,0.079048,0.003681,0.081809,-0.061779,0.06932,-0.0037978,-0.05438,0.022513,0.0060484,0.088264,0.04398,-0.077716,0.084238,-0.061528,-0.014837,-0.052873,0.052156,0.030669,-0.039752,-0.0069469,-0.051344,0.02363,-0.027122,0.0097823,0.058544,-0.050531,0.075226,0.0018973,-0.0169,-0.08504,0.078628,-0.031625,0.060104,-0.035329,0.056682,0.037883,-0.020263,-0.069258,0.046325,0.079284,-0.047923,-2.4966e-005,0.035886,0.030516,-0.047151,0.10451,-0.030721,0.081,-0.0072962,0.079306,-0.0011173,0.1111,-0.026838,0.050728,-0.0086159,0.053633,-0.076827,-0.054242,-0.077789,0.087008,0.05941,-0.054884,-0.00017867,-0.064634,-0.0048418,0.057709,0.011414,-0.011637,-0.073303,-0.093689,-0.075131,0.027127,0.080399,0.044019,0.16503,0.062549,0.024572,0.066587,-0.050503,0.024024,-0.0069525,-0.026002,-0.042763,0.0042895,0.029023,-0.033466,0.016203,-0.0053414,-0.15414,-0.054806,-0.07905,-0.030369,0.01629,0.23439,0.25144,0.26179,0.061928,0.027903,0.013786,-0.03475,-0.084622,0.025716,-0.094592,-0.11309,0.099339,0.24244,0.2398,-0.027562,0.0068901,-0.071962,0.031308,0.12389,0.066871,0.20539,0.35638,0.19944,0.23085,0.15387,-0.025276,0.063224,-0.068768,-0.069513,0.035921,0.022432,0.12895,0.15808,0.20801,0.027227,-0.052102,0.029304,-0.0029181,-0.094597,-0.047715,0.04604,0.13785,0.16706,0.19928,0.1548,0.043729,-0.077802,-0.016159,-0.093605,-0.10685,-0.038312,0.25638,0.19827,0.062881,0.14577,0.055467,-0.047509,-0.22215,-0.1766,0.082151,-0.11294,0.11235,0.23437,0.26103,0.12124,0.043884,0.02385,0.014316,0.00053764,0.010564,0.063197,0.27067,0.33505,0.25753,0.23919,0.051063,-0.0057573,-0.10992,0.015821,-0.093768,-0.28924,-0.1694,0.08816,0.31886,0.23962,0.10413,0.037557,0.059737,-0.02746,-0.076115,0.090909,0.1828,0.30988,0.24641,0.21002,0.12333,0.1086,0.094381,-0.02797,-0.074226,-0.31472,-0.23947,-0.037566,0.30573,0.23747,0.13784,0.024294,0.0019052,0.080876,-0.034357,0.13891,0.34742,0.23084,0.16959,0.037677,0.086546,0.056862,-0.20302,-0.22881,-0.16434,-0.18872,-0.26962,-0.044932,0.26142,0.17728,0.029971,0.10563,0.077152,0.043236,0.03909,0.098081,0.20282,0.31768,-0.036406,-0.00047036,-0.04344,-0.16507,-0.065329,-0.038772,0.086563,-0.055665,-0.16204,-0.053386,0.21029,0.1018,0.00054948,0.063828,0.079644,-0.059847,0.015292,0.16122,0.23031,0.14731,0.11693,-0.062972,-0.12689,-0.16386,0.016339,0.14089,0.10312,0.076265,-0.0012839,-0.0049927,0.0099535,0.13261,0.032803,-0.02471,-0.0025016,-0.03394,-0.067276,0.012798,0.14105,0.27867,0.088658,-0.0033466,-0.045427,-0.04851,0.020483,0.097698,0.17642,-0.0084546,0.15002,0.080861,-0.0058494,0.02552,0.045161,0.0070866,-0.065913,-0.044888,-0.070333,0.026,0.24672,0.40487,0.17137,0.13774,0.097947,-0.073827,-0.088228,-0.064794,-0.031276,-0.02448,0.12299,0.11431,0.097773,0.081612,0.0057216,0.017422,-0.043753,-0.085066,-0.071543,0.11936,0.12565,0.26427,0.27521,0.14788,0.041129,-0.018499,-0.0047803,-0.0052622,-0.071783,0.077141,0.19634,0.1684,0.066853,-0.033673,-0.0088678,0.036845,-0.088562,0.002747,-0.018845,0.015893,0.08088,0.19712,0.28304,0.092865,0.0096389,-0.15341,-0.15899,0.0018807,0.13414,0.047125,0.11511,0.048931,-0.0024717,-0.039186,0.007721,0.071189,-0.025532,-0.038546,-0.0070392,0.056251,0.10759,0.18737,0.083522,-0.067424,-0.029572,-0.12845,-0.08405,0.017466,0.1589,0.004823,0.030876,0.13434,-0.058151,-0.026955,-0.024731,0.067577,-0.0022981,-0.053912,0.0083069,0.055655,-0.053111,0.10222,0.0080094,-0.009691,0.06437,0.095152,0.067497,0.11725,-0.033041,0.053922,-0.065482,0.055151,0.044909,0.04696,0.037702,-0.02639,-0.083139,-0.028119,0.043742,-0.026073,-0.069187,-0.068597,0.020616,0.020971,0.013411,0.0077044,-0.024873,-0.011147,-0.075512,0.062975,0.090047,-0.028315,0.009633,0.049066,-0.017005,-0.036031},{0.40514,-0.063284,-0.075366,-0.0022825,-0.087601,-0.020545,-0.038576,-0.032053,-0.045819,-0.01074,0.026522,0.065787,0.038261,0.002842,-0.0092356,-0.091475,0.059839,0.011163,-0.072757,-0.031947,0.070538,0.03021,-0.072927,-0.082839,0.050821,-0.083055,-0.065401,-0.053982,-0.048507,0.013939,0.074242,-0.061101,0.028392,0.030554,-0.031819,0.089302,0.05187,0.07853,-0.014516,0.064501,0.060212,0.058173,0.0072905,0.064645,-0.061965,0.06909,0.0029338,0.0035367,0.052216,-0.024888,0.046331,-0.054862,-0.078386,0.033707,-0.069383,0.092523,0.017713,-0.016787,0.020459,-0.048944,-0.059351,0.088533,0.01513,-0.020564,-0.023221,0.057269,-0.011857,0.12855,0.0069239,0.11385,0.10986,-0.018396,0.11867,0.038088,0.10985,0.16617,0.024312,0.097579,0.029576,-0.077603,0.066869,0.048523,-0.018583,-0.047815,-0.015431,0.069094,0.025644,0.12872,0.11662,0.036446,0.11542,0.1611,0.13105,0.28948,0.37068,0.25976,0.11068,0.071157,-0.039737,-0.059296,-0.025761,0.082582,-0.015215,0.089917,-0.043341,0.049352,0.055804,0.32479,0.26502,0.11595,0.12922,0.1892,0.32045,0.30712,0.49587,0.41302,0.33187,0.21528,0.0073999,0.097257,0.028813,0.037756,0.067012,-0.058284,0.16577,0.20973,0.24039,0.39649,0.33949,0.27061,0.16522,0.28854,0.087921,0.032207,0.12942,0.28667,0.27968,0.065254,0.18552,-0.03296,0.035691,0.03885,0.049263,0.049393,0.13907,0.24558,0.37698,0.38371,0.1982,-0.04775,-0.011762,-0.077346,-0.031737,-0.16651,-0.32563,-0.18741,0.072058,0.06483,0.12972,0.037072,-0.042139,-0.041734,0.029821,0.059914,0.23267,0.37319,0.34105,0.30944,-0.037675,-0.068983,-0.14836,-0.14261,-0.24294,-0.35074,-0.26771,-0.26158,-0.1309,0.069921,0.054899,0.082239,-0.018599,-0.052996,0.071283,0.089012,0.20766,0.19264,0.13476,-0.022567,-0.1238,-0.19744,-0.29995,-0.37179,-0.073196,-0.012821,0.032158,-0.09775,-0.14042,-0.088176,0.18221,0.12823,0.060126,-0.061278,-0.11657,-0.081523,-0.013674,-0.063481,-0.13273,-0.19458,-0.16522,-0.31343,-0.45217,-0.21286,-0.041396,0.16321,0.16497,0.1088,-0.062012,-0.13621,0.18453,0.11132,0.081,0.069857,-0.073202,-0.059039,-0.038395,-0.038927,0.030024,0.0157,0.11522,0.036597,-0.24178,0.00094582,0.12795,0.31383,0.13938,0.0030052,0.065334,0.018715,0.058812,-0.016918,-0.03853,-0.030365,-0.028807,-0.19688,0.075468,0.018746,0.035645,0.16686,0.24348,-0.01616,0.006712,0.092194,0.17133,0.19882,0.012379,0.086917,0.051156,0.063117,-0.010222,-0.010496,-0.04433,0.036012,-0.11245,-0.19822,-0.091656,-0.0028365,0.22297,0.2827,0.26161,0.065206,0.05819,0.22311,0.13836,0.20528,0.098643,0.22748,0.076585,-0.10053,-0.082046,0.015273,-0.023431,0.067961,-0.1036,-0.066421,-0.054013,0.18734,0.27209,0.33871,0.40253,0.20984,0.22641,0.128,0.22394,0.059838,0.13087,0.15387,0.023058,-0.011333,-0.026795,-0.069796,0.024828,-0.056484,-0.070352,-0.045587,0.039274,0.11968,0.25328,0.27284,0.19049,0.04109,0.10996,0.099433,0.039051,0.097121,0.25882,0.19027,-0.0024803,0.064985,-0.076012,-0.028855,-0.066453,0.060296,-0.014099,-0.0019611,0.16309,0.12123,0.15099,0.23576,0.14064,0.1634,0.059018,0.12928,0.022093,0.11554,0.08001,0.17925,0.037457,0.022725,0.042616,-0.065731,-0.081183,-0.045397,-0.087298,-0.055409,0.09703,0.039377,0.073429,0.09833,0.0088049,0.10651,0.094,-0.037023,0.12245,0.054188,0.062499,-0.02875,0.072996,-0.068202,0.019979,0.072029,0.080894,-0.073493,-0.027748,-0.049023,-0.037955,0.048013,-0.031365,0.005584,0.0036259,0.071222,-0.074669,0.021505,-0.036625,-0.039825,0.059126,0.083732,-0.028855,-0.051958,-0.069964,-0.083126,-0.046695,-0.09204,-0.036749,-0.020421,-0.062523,-0.10928,0.00083975,-0.063154,-0.035826,-0.069117,0.030057,0.086797,0.079462,-0.014457,-0.055646,0.0007576,-0.0059909,0.0095413,-0.0049004,-0.023862,-0.0069884}};
